{"learner":{"attributes":{"scikit_learn":"{\"_estimator_type\": \"classifier\"}"},"feature_names":["obi","momentum_10","momentum_50"],"feature_types":[],"gradient_booster":{"model":{"cats":{"enc":[],"feature_segments":[],"sorted_idx":[]},"gbtree_model_param":{"num_parallel_tree":"1","num_trees":"300"},"iteration_indptr":[0,3,6,9,12,15,18,21,24,27,30,33,36,39,42,45,48,51,54,57,60,63,66,69,72,75,78,81,84,87,90,93,96,99,102,105,108,111,114,117,120,123,126,129,132,135,138,141,144,147,150,153,156,159,162,165,168,171,174,177,180,183,186,189,192,195,198,201,204,207,210,213,216,219,222,225,228,231,234,237,240,243,246,249,252,255,258,261,264,267,270,273,276,279,282,285,288,291,294,297,300],"tree_info":[0,1,2,0,1,2,0,1,2,0,1,2,0,1,2,0,1,2,0,1,2,0,1,2,0,1,2,0,1,2,0,1,2,0,1,2,0,1,2,0,1,2,0,1,2,0,1,2,0,1,2,0,1,2,0,1,2,0,1,2,0,1,2,0,1,2,0,1,2,0,1,2,0,1,2,0,1,2,0,1,2,0,1,2,0,1,2,0,1,2,0,1,2,0,1,2,0,1,2,0,1,2,0,1,2,0,1,2,0,1,2,0,1,2,0,1,2,0,1,2,0,1,2,0,1,2,0,1,2,0,1,2,0,1,2,0,1,2,0,1,2,0,1,2,0,1,2,0,1,2,0,1,2,0,1,2,0,1,2,0,1,2,0,1,2,0,1,2,0,1,2,0,1,2,0,1,2,0,1,2,0,1,2,0,1,2,0,1,2,0,1,2,0,1,2,0,1,2,0,1,2,0,1,2,0,1,2,0,1,2,0,1,2,0,1,2,0,1,2,0,1,2,0,1,2,0,1,2,0,1,2,0,1,2,0,1,2,0,1,2,0,1,2,0,1,2,0,1,2,0,1,2,0,1,2,0,1,2,0,1,2,0,1,2,0,1,2,0,1,2,0,1,2,0,1,2,0,1,2,0,1,2,0,1,2,0,1,2,0,1,2,0,1,2,0,1,2,0,1,2],"trees":[{"base_weights":[-2.4530475E-6,1.1510303E0,-1.7638648E-1,1.6085846E0,7.4752414E-1,1.4017916E-1,-2.8843805E-1,1.9717774E0,1.2451683E0,1.0707577E0,5.180901E-1,5.350264E-1,4.0016096E-2,9.407477E-2,-3.0764472E-1,2.1320107E0,1.6087987E0,1.7559103E0,1.1022207E0,9.970455E-1,2.2539277E0,1.2714097E0,4.515603E-1,1.2525445E0,4.7273335E-1,8.206527E-3,7.796482E-1,4.0742564E-1,1.4461312E-2,-3.3491474E-1,-5.866858E-2,2.3889966E0,2.0411172E0,1.6910914E0,1.3668523E0,1.8237716E0,1.1952494E0,1.2498604E0,7.998196E-1,1.5077167E0,9.556326E-1,2.4763172E0,1.341618E0,1.5270449E0,9.5292974E-1,4.10059E-1,1.6416097E0,1.567535E0,1.0255622E0,7.045801E-1,4.0245783E-1,-3.6340393E-2,2.7267787E-1,7.091246E-1,1.4213237E0,6.2892145E-1,1.7977415E-1,1.1160382E-1,-1.211901E-1,-2.801533E-1,-4.1326964E-1,-1.01440914E-1,7.2792935E-1,2.6041096E-1,2.2182623E-1,1.9654983E-1,2.3499475E-1,1.48868E-1,1.7833592E-1,1.6584148E-1,9.902653E-2,1.9458272E-1,1.563968E-1,1.432644E-1,5.23899E-2,1.5243213E-1,1.05080806E-1,8.4872596E-2,4.7099903E-2,1.18837886E-1,2.1089701E-1,1.1160561E-1,8.4903866E-2,2.556577E-1,1.7276086E-1,9.288674E-2,2.1166427E-1,1.3977541E-1,2.0654093E-1,8.213689E-2,1.520695E-1,3.5183366E-2,8.235146E-2,1.7651366E-1,7.483036E-2,1.7173085E-1,7.968026E-2,1.3631965E-1,9.39846E-2,1.0582165E-1,6.040581E-2,5.4197073E-2,3.0058334E-2,1.2568354E-2,-1.4398249E-2,4.0854517E-2,1.0928592E-2,1.2948704E-1,6.2200774E-2,1.9973452E-1,1.2395848E-1,9.024277E-2,4.3976467E-2,4.067282E-2,6.481907E-3,3.1786714E-2,-4.912831E-4,-4.756534E-3,-2.677763E-2,-3.2696206E-2,-1.2105705E-2,-4.2149995E-2,-2.2152198E-2,1.5841462E-2,-2.057804E-2,1.8503684E-1,6.5759204E-2],"categories":[],"categories_nodes":[],"categories_segments":[],"categories_sizes":[],"default_left":[0,0,0,0,0,0,0,0,0,0,0,0,0,0,0,0,0,0,0,0,0,0,0,0,0,0,0,0,0,0,0,0,0,0,0,0,0,0,0,0,0,0,0,0,0,0,0,0,0,0,0,0,0,0,0,0,0,0,0,0,0,0,0,0,0,0,0,0,0,0,0,0,0,0,0,0,0,0,0,0,0,0,0,0,0,0,0,0,0,0,0,0,0,0,0,0,0,0,0,0,0,0,0,0,0,0,0,0,0,0,0,0,0,0,0,0,0,0,0,0,0,0,0,0,0,0,0],"id":0,"left_children":[1,3,5,7,9,11,13,15,17,19,21,23,25,27,29,31,33,35,37,39,41,43,45,47,49,51,53,55,57,59,61,63,65,67,69,71,73,75,77,79,81,83,85,87,89,91,93,95,97,99,101,103,105,107,109,111,113,115,117,119,121,123,125,-1,-1,-1,-1,-1,-1,-1,-1,-1,-1,-1,-1,-1,-1,-1,-1,-1,-1,-1,-1,-1,-1,-1,-1,-1,-1,-1,-1,-1,-1,-1,-1,-1,-1,-1,-1,-1,-1,-1,-1,-1,-1,-1,-1,-1,-1,-1,-1,-1,-1,-1,-1,-1,-1,-1,-1,-1,-1,-1,-1,-1,-1,-1,-1],"loss_changes":[2.6879277E4,3.246791E3,4.072275E3,1.0855605E3,6.9285986E2,1.1869653E3,6.229668E2,2.3625977E2,2.9908398E2,3.3620215E2,2.735962E2,2.7084497E2,5.632642E2,1.011463E2,5.481494E2,6.1833008E1,2.2898682E1,3.2059814E1,1.4294409E2,7.5854004E1,4.2691895E1,3.4641785E1,2.4765723E2,3.303363E1,9.07854E1,2.7045038E2,4.3664917E1,4.1306717E1,4.263304E1,3.121123E2,2.682636E2,2.1413574E1,4.48125E1,1.4911865E1,3.4214905E1,2.2352295E1,1.519754E1,1.16656494E2,1.6653992E1,4.980072E1,5.6909912E1,6.4697266E0,1.2951157E1,1.41171875E1,1.3695984E1,1.16707825E2,1.7339508E1,2.1836945E1,6.952057E0,4.553064E1,6.0832764E1,3.42668E2,7.341855E1,4.468213E1,7.653122E0,2.1122284E1,1.0578697E1,4.5307747E1,1.4558081E1,3.1895605E2,4.7144043E1,2.0503639E2,3.1248413E1,0E0,0E0,0E0,0E0,0E0,0E0,0E0,0E0,0E0,0E0,0E0,0E0,0E0,0E0,0E0,0E0,0E0,0E0,0E0,0E0,0E0,0E0,0E0,0E0,0E0,0E0,0E0,0E0,0E0,0E0,0E0,0E0,0E0,0E0,0E0,0E0,0E0,0E0,0E0,0E0,0E0,0E0,0E0,0E0,0E0,0E0,0E0,0E0,0E0,0E0,0E0,0E0,0E0,0E0,0E0,0E0,0E0,0E0,0E0,0E0,0E0,0E0,0E0,0E0],"parents":[2147483647,0,0,1,1,2,2,3,3,4,4,5,5,6,6,7,7,8,8,9,9,10,10,11,11,12,12,13,13,14,14,15,15,16,16,17,17,18,18,19,19,20,20,21,21,22,22,23,23,24,24,25,25,26,26,27,27,28,28,29,29,30,30,31,31,32,32,33,33,34,34,35,35,36,36,37,37,38,38,39,39,40,40,41,41,42,42,43,43,44,44,45,45,46,46,47,47,48,48,49,49,50,50,51,51,52,52,53,53,54,54,55,55,56,56,57,57,58,58,59,59,60,60,61,61,62,62],"right_children":[2,4,6,8,10,12,14,16,18,20,22,24,26,28,30,32,34,36,38,40,42,44,46,48,50,52,54,56,58,60,62,64,66,68,70,72,74,76,78,80,82,84,86,88,90,92,94,96,98,100,102,104,106,108,110,112,114,116,118,120,122,124,126,-1,-1,-1,-1,-1,-1,-1,-1,-1,-1,-1,-1,-1,-1,-1,-1,-1,-1,-1,-1,-1,-1,-1,-1,-1,-1,-1,-1,-1,-1,-1,-1,-1,-1,-1,-1,-1,-1,-1,-1,-1,-1,-1,-1,-1,-1,-1,-1,-1,-1,-1,-1,-1,-1,-1,-1,-1,-1,-1,-1,-1,-1,-1,-1],"split_conditions":[-9.045962E-1,0E0,-4.4521505E-1,-9.94992E-1,-9.831501E-1,0E0,-1.771E1,-1.53E0,-1.837E1,1E-2,-1.498E1,-3.04E1,1.3E-1,-4.024E1,1.658E1,-1.67E1,-1E-2,-1.53E0,-9.4963837E-1,-1.837E1,-9.935084E-1,-1.999E1,9.5E-1,-7.766595E-1,-8.94E0,1E-2,2.063E1,-6.8E-1,2.972198E-1,4.1244003E-1,6.126E1,-9.54E0,-1.38E0,-9.9E-1,-9.9894226E-1,-9.4963837E-1,-9.4963837E-1,-4.32E0,-6.8E-1,-2.322E1,-9.970952E-1,4.148E1,1.769E1,-2.322E1,-9.2249006E-1,1E-2,-9.1646844E-1,-3E0,-5.641E1,-8.471612E-1,-8.036969E-1,-5.8E-1,-6.626171E-1,-6.37E0,-7.910973E-1,7.6758265E-2,-1.9020694E-3,0E0,8.4636647E-1,1E-2,9.6E0,2.0394677E-1,-2.7572396E-1,2.6041096E-1,2.2182623E-1,1.9654983E-1,2.3499475E-1,1.48868E-1,1.7833592E-1,1.6584148E-1,9.902653E-2,1.9458272E-1,1.563968E-1,1.432644E-1,5.23899E-2,1.5243213E-1,1.05080806E-1,8.4872596E-2,4.7099903E-2,1.18837886E-1,2.1089701E-1,1.1160561E-1,8.4903866E-2,2.556577E-1,1.7276086E-1,9.288674E-2,2.1166427E-1,1.3977541E-1,2.0654093E-1,8.213689E-2,1.520695E-1,3.5183366E-2,8.235146E-2,1.7651366E-1,7.483036E-2,1.7173085E-1,7.968026E-2,1.3631965E-1,9.39846E-2,1.0582165E-1,6.040581E-2,5.4197073E-2,3.0058334E-2,1.2568354E-2,-1.4398249E-2,4.0854517E-2,1.0928592E-2,1.2948704E-1,6.2200774E-2,1.9973452E-1,1.2395848E-1,9.024277E-2,4.3976467E-2,4.067282E-2,6.481907E-3,3.1786714E-2,-4.912831E-4,-4.756534E-3,-2.677763E-2,-3.2696206E-2,-1.2105705E-2,-4.2149995E-2,-2.2152198E-2,1.5841462E-2,-2.057804E-2,1.8503684E-1,6.5759204E-2],"split_indices":[0,1,0,0,0,1,2,1,2,1,2,2,1,2,2,2,1,1,0,2,0,2,1,0,1,2,1,1,0,0,2,1,2,1,0,0,0,1,1,2,0,2,2,2,0,2,0,1,2,0,0,2,0,2,0,0,0,1,0,2,1,0,0,0,0,0,0,0,0,0,0,0,0,0,0,0,0,0,0,0,0,0,0,0,0,0,0,0,0,0,0,0,0,0,0,0,0,0,0,0,0,0,0,0,0,0,0,0,0,0,0,0,0,0,0,0,0,0,0,0,0,0,0,0,0,0,0],"split_type":[0,0,0,0,0,0,0,0,0,0,0,0,0,0,0,0,0,0,0,0,0,0,0,0,0,0,0,0,0,0,0,0,0,0,0,0,0,0,0,0,0,0,0,0,0,0,0,0,0,0,0,0,0,0,0,0,0,0,0,0,0,0,0,0,0,0,0,0,0,0,0,0,0,0,0,0,0,0,0,0,0,0,0,0,0,0,0,0,0,0,0,0,0,0,0,0,0,0,0,0,0,0,0,0,0,0,0,0,0,0,0,0,0,0,0,0,0,0,0,0,0,0,0,0,0,0,0],"sum_hessian":[1.323927E5,1.7591297E4,1.14801414E5,8.242152E3,9.3491455E3,3.001198E4,8.478943E4,4.1201304E3,4.122022E3,3.8796753E3,5.4694697E3,6.071908E3,2.3940072E4,4.0536921E3,8.0735734E4,2.8549624E3,1.2651681E3,8.9892896E2,3.223093E3,3.6538792E3,2.257962E2,4.423714E2,5.027098E3,4.8351123E2,5.588397E3,2.2953898E4,9.8617377E2,8.2043225E2,3.2332598E3,7.2765484E4,7.9702515E3,7.393348E2,2.1156277E3,9.3959595E2,3.255721E2,7.9986237E2,9.9066605E1,2.1636243E3,1.0594689E3,2.714283E2,3.3824507E3,1.801641E2,4.563211E1,2.4329245E2,1.9907896E2,4.8589927E3,1.6810587E2,2.000247E2,2.8348654E2,1.2977961E3,4.2906006E3,1.9645688E4,3.30821E3,8.904173E2,9.575651E1,4.1494485E2,4.0548743E2,1.884157E3,1.3491028E3,4.2833895E4,2.9931592E4,7.560035E3,4.1021613E2,3.208434E2,4.184914E2,1.7054115E3,4.1021613E2,2.9956418E2,6.4003174E2,1.815827E2,1.4398941E2,5.3978296E2,2.600794E2,7.234936E1,2.6717247E1,9.067313E2,1.2568928E3,9.209175E2,1.3855139E2,1.7921835E2,9.220997E1,1.346502E3,2.0359489E3,1.6053992E2,1.9624172E1,3.1209528E1,1.4422585E1,1.9907896E2,4.4213497E1,1.6361359E2,3.5465374E1,4.26081E3,5.981826E2,1.4682664E2,2.1279222E1,1.6645082E2,3.3573887E1,5.4380238E1,2.2910631E2,2.851416E2,1.0126546E3,1.8089705E3,2.4816304E3,7.8418667E3,1.1803821E4,1.8054238E3,1.502786E3,1.1348919E2,7.769281E2,2.0569916E1,7.518659E1,1.6810587E2,2.4683899E2,1.3547772E2,2.700097E2,6.7951654E2,1.2046405E3,8.9892896E2,4.501738E2,3.309558E4,9.738318E3,2.869858E4,1.2330128E3,2.165752E3,5.394283E3,2.2697838E1,3.875183E2],"tree_param":{"num_deleted":"0","num_feature":"3","num_nodes":"127","size_leaf_vector":"1"}},{"base_weights":[3.120071E-6,5.9251677E-2,-7.8336036E-1,-4.6663144E-1,1.5410887E-1,-5.6783736E-1,-1.0519828E0,-8.441193E-1,-2.4808137E-1,2.1353868E-1,-2.910197E-1,-4.0474948E-1,-8.038588E-1,-8.518955E-1,-1.1656266E0,-1.032367E0,-6.9728166E-1,-7.4200493E-1,-1.6141574E-1,-1.9203013E-1,2.499651E-1,-2.153905E-1,-8.7277806E-1,-9.8601395E-1,-3.64248E-1,-7.4908346E-1,-1.410276E0,-1.4128387E0,-7.8868634E-1,-1.1155983E0,-1.4910684E0,-1.1796889E0,-8.407606E-1,-8.351707E-1,-4.6917644E-1,-1.2592343E0,-6.5041924E-1,-1.2096854E-1,-8.022597E-1,-3.403556E-1,-5.4004468E-2,2.9662174E-1,9.566489E-2,-1.0879467E0,-1.8814486E-1,-7.287695E-1,-1.4493686E0,-1.6652052E-1,-9.167932E-1,-3.136545E-1,-7.629428E-1,-1.3857203E0,-7.301624E-1,-1.238956E0,-1.6324268E-1,-1.329852E0,-1.6737793E-1,-6.3849145E-1,-9.255766E-1,-1.068319E0,-1.2919549E0,-1.4301032E0,-1.6302294E-1,-1.5471472E-1,-1.13000214E-1,-1.4591728E-1,-7.879552E-2,-8.8189624E-2,-5.342845E-2,-9.152288E-2,-3.9627116E-2,-1.3225196E-1,-8.255298E-2,-7.857911E-2,-5.5220485E-2,-3.54007E-2,-8.666514E-3,-1.0938331E-1,-6.104074E-2,-7.082414E-2,-3.1071175E-2,-4.1719716E-2,-7.766196E-5,1.323849E-2,3.741792E-2,1.2298255E-2,-9.245493E-3,-1.4045183E-1,-8.310965E-2,-7.884549E-2,-1.7039748E-2,-1.3193895E-1,-6.9807306E-2,-1.12294786E-1,-1.5663952E-1,-1.16606094E-1,-8.509712E-2,-5.8698088E-2,-2.6067182E-2,-7.1854375E-2,-1.2833956E-1,-8.7765805E-2,-1.5117495E-1,-6.2620215E-2,-8.210953E-2,-3.2745566E-2,-1.2632996E-1,-9.874825E-2,-1.4168926E-1,-5.279935E-2,-1.06003426E-1,-8.648626E-2,-1.0666402E-1,-9.366352E-2,-1.12822555E-1,-9.291396E-2,-1.3224487E-1,-1.7068836E-1,-1.3872713E-1],"categories":[],"categories_nodes":[],"categories_segments":[],"categories_sizes":[],"default_left":[0,0,0,0,0,0,0,0,0,0,0,0,0,0,0,0,0,0,0,0,0,0,0,0,0,0,0,0,0,0,0,0,0,0,0,0,0,0,0,0,0,0,0,0,0,0,0,0,0,0,0,0,0,0,0,0,0,0,0,0,0,0,0,0,0,0,0,0,0,0,0,0,0,0,0,0,0,0,0,0,0,0,0,0,0,0,0,0,0,0,0,0,0,0,0,0,0,0,0,0,0,0,0,0,0,0,0,0,0,0,0,0,0,0,0,0,0,0,0],"id":1,"left_children":[1,3,5,7,9,11,13,15,17,19,21,23,25,27,29,31,33,35,37,39,41,43,45,47,49,51,53,55,57,59,61,63,65,67,69,71,73,75,77,79,81,83,85,87,89,91,93,-1,95,97,99,101,103,105,-1,107,-1,109,111,113,115,117,-1,-1,-1,-1,-1,-1,-1,-1,-1,-1,-1,-1,-1,-1,-1,-1,-1,-1,-1,-1,-1,-1,-1,-1,-1,-1,-1,-1,-1,-1,-1,-1,-1,-1,-1,-1,-1,-1,-1,-1,-1,-1,-1,-1,-1,-1,-1,-1,-1,-1,-1,-1,-1,-1,-1,-1,-1],"loss_changes":[1.0064493E4,1.0056552E4,8.821504E2,2.5413735E3,4.5181797E3,3.254004E2,1.5332275E2,3.115122E2,8.3513257E2,2.2260444E3,8.849314E2,1.17498474E2,1.1376904E2,8.618005E1,6.8760254E1,1.3867334E2,1.9930054E2,1.3714258E2,4.3020743E2,2.5421817E2,9.953115E2,4.2306158E2,1.9109009E2,1.3777313E1,9.4197815E1,3.7204956E1,8.833557E0,3.145935E0,4.494861E1,2.9914062E1,2.532837E0,4.927588E1,6.9194336E1,5.5141357E1,7.749664E1,1.090387E1,3.248999E1,1.2480885E2,5.445465E1,6.505646E1,1.2437531E2,1.3521729E3,1.6497958E2,4.2651184E1,1.8382007E2,3.2684998E1,1.5868225E1,0E0,3.8911285E0,6.0035828E1,1.1244049E1,4.465149E0,2.8632324E1,3.251892E0,0E0,4.354553E0,0E0,4.8785156E1,8.98291E0,2.233667E1,7.4969482E0,2.4552002E0,0E0,0E0,0E0,0E0,0E0,0E0,0E0,0E0,0E0,0E0,0E0,0E0,0E0,0E0,0E0,0E0,0E0,0E0,0E0,0E0,0E0,0E0,0E0,0E0,0E0,0E0,0E0,0E0,0E0,0E0,0E0,0E0,0E0,0E0,0E0,0E0,0E0,0E0,0E0,0E0,0E0,0E0,0E0,0E0,0E0,0E0,0E0,0E0,0E0,0E0,0E0,0E0,0E0,0E0,0E0,0E0,0E0],"parents":[2147483647,0,0,1,1,2,2,3,3,4,4,5,5,6,6,7,7,8,8,9,9,10,10,11,11,12,12,13,13,14,14,15,15,16,16,17,17,18,18,19,19,20,20,21,21,22,22,23,23,24,24,25,25,26,26,27,27,28,28,29,29,30,30,31,31,32,32,33,33,34,34,35,35,36,36,37,37,38,38,39,39,40,40,41,41,42,42,43,43,44,44,45,45,46,46,48,48,49,49,50,50,51,51,52,52,53,53,55,55,57,57,58,58,59,59,60,60,61,61],"right_children":[2,4,6,8,10,12,14,16,18,20,22,24,26,28,30,32,34,36,38,40,42,44,46,48,50,52,54,56,58,60,62,64,66,68,70,72,74,76,78,80,82,84,86,88,90,92,94,-1,96,98,100,102,104,106,-1,108,-1,110,112,114,116,118,-1,-1,-1,-1,-1,-1,-1,-1,-1,-1,-1,-1,-1,-1,-1,-1,-1,-1,-1,-1,-1,-1,-1,-1,-1,-1,-1,-1,-1,-1,-1,-1,-1,-1,-1,-1,-1,-1,-1,-1,-1,-1,-1,-1,-1,-1,-1,-1,-1,-1,-1,-1,-1,-1,-1,-1,-1],"split_conditions":[9.4897157E-1,0E0,9.9427485E-1,-9.4963837E-1,1E-2,1.3E-1,1.3E-1,-4.32E0,-2.541E1,-9.2800844E-1,3.06E1,0E0,3.342E1,-1E-2,1.339E1,-9.94992E-1,-9.94992E-1,-5.641E1,1.71E1,-9.831501E-1,2.3E-1,-9.1646844E-1,6.126E1,-4.024E1,1.536E1,-1.771E1,4.794E1,-5.8E-1,9.980851E-1,1.482E1,3.06E1,-3.04E1,-3.63E1,-1E-2,-1.837E1,-3.66E0,-3.63E1,-1.2E1,-6.82E0,-1.837E1,-1.176E1,-1E-2,8.0046636E-1,-9.935084E-1,-2.541E1,-9.045962E-1,9.6E0,-1.6652052E-1,-1.461E1,-1E-2,4.148E1,9.643388E-1,4.59E0,5.3E-1,-1.6324268E-1,9.972723E-1,-1.6737793E-1,1.074E1,8.23E0,9.980851E-1,9.960557E-1,1.38E0,-1.6302294E-1,-1.5471472E-1,-1.13000214E-1,-1.4591728E-1,-7.879552E-2,-8.8189624E-2,-5.342845E-2,-9.152288E-2,-3.9627116E-2,-1.3225196E-1,-8.255298E-2,-7.857911E-2,-5.5220485E-2,-3.54007E-2,-8.666514E-3,-1.0938331E-1,-6.104074E-2,-7.082414E-2,-3.1071175E-2,-4.1719716E-2,-7.766196E-5,1.323849E-2,3.741792E-2,1.2298255E-2,-9.245493E-3,-1.4045183E-1,-8.310965E-2,-7.884549E-2,-1.7039748E-2,-1.3193895E-1,-6.9807306E-2,-1.12294786E-1,-1.5663952E-1,-1.16606094E-1,-8.509712E-2,-5.8698088E-2,-2.6067182E-2,-7.1854375E-2,-1.2833956E-1,-8.7765805E-2,-1.5117495E-1,-6.2620215E-2,-8.210953E-2,-3.2745566E-2,-1.2632996E-1,-9.874825E-2,-1.4168926E-1,-5.279935E-2,-1.06003426E-1,-8.648626E-2,-1.0666402E-1,-9.366352E-2,-1.12822555E-1,-9.291396E-2,-1.3224487E-1,-1.7068836E-1,-1.3872713E-1],"split_indices":[0,1,0,0,1,1,1,1,2,0,2,1,2,1,1,0,0,2,2,0,2,0,2,2,2,2,2,2,0,2,2,2,2,1,2,1,2,1,1,2,2,2,0,0,2,0,1,0,1,2,2,0,1,1,0,0,0,2,2,0,0,2,0,0,0,0,0,0,0,0,0,0,0,0,0,0,0,0,0,0,0,0,0,0,0,0,0,0,0,0,0,0,0,0,0,0,0,0,0,0,0,0,0,0,0,0,0,0,0,0,0,0,0,0,0,0,0,0,0],"split_type":[0,0,0,0,0,0,0,0,0,0,0,0,0,0,0,0,0,0,0,0,0,0,0,0,0,0,0,0,0,0,0,0,0,0,0,0,0,0,0,0,0,0,0,0,0,0,0,0,0,0,0,0,0,0,0,0,0,0,0,0,0,0,0,0,0,0,0,0,0,0,0,0,0,0,0,0,0,0,0,0,0,0,0,0,0,0,0,0,0,0,0,0,0,0,0,0,0,0,0,0,0,0,0,0,0,0,0,0,0,0,0,0,0,0,0,0,0,0,0],"sum_hessian":[2.1684372E5,2.0159714E5,1.5246582E4,3.0806064E4,1.7079108E5,8.461115E3,6.785467E3,1.1294653E4,1.9511412E4,1.5067477E5,2.0116303E4,5.0052593E3,3.4558557E3,2.461E3,4.324467E3,4.946784E3,6.3478696E3,2.9113765E3,1.6600035E4,1.2417304E4,1.3825747E5,1.7803234E4,2.3130688E3,3.2451895E2,4.6807407E3,3.1716113E3,2.8424454E2,2.4706813E2,2.213932E3,3.7521052E3,5.723616E2,2.7936511E3,2.1531328E3,3.9546392E3,2.3932305E3,4.3604813E2,2.4753284E3,1.5615635E4,9.8439996E2,5.984625E3,6.432678E3,1.06157195E5,3.2100268E4,5.37896E2,1.7265338E4,1.8526237E3,4.6044516E2,2.7882298E1,2.9663666E2,4.155237E3,5.2550385E2,8.94557E1,3.0821555E3,1.6419574E2,1.20048775E2,1.9207805E2,5.4990086E1,1.0583655E3,1.1555663E3,2.9644302E3,7.8767487E2,4.0584232E2,1.6651927E2,3.2916602E2,2.464485E3,1.6729378E2,1.9858391E3,3.4213901E3,5.332489E2,3.3458755E2,2.0586428E3,3.7873453E2,5.731361E1,1.0378411E3,1.4374873E3,2.0024911E3,1.3613144E4,3.8880313E2,5.9559686E2,4.4456772E2,5.5400576E3,8.2136597E2,5.611312E3,3.405164E4,7.2105555E4,2.8030229E4,4.0700408E3,2.3893579E2,2.9896017E2,4.945235E2,1.6770814E4,8.94557E1,1.763168E3,1.2430857E2,3.3613657E2,5.8475372E1,2.3816129E2,6.7304767E2,3.482189E3,4.8639117E2,3.9112667E1,1.9362705E1,7.0092995E1,1.4417471E3,1.6404084E3,4.6470494E0,1.5954869E2,4.143619E1,1.5064185E2,8.4034143E2,2.1802406E2,8.128464E2,3.427199E2,9.3212067E2,2.0323096E3,6.3509674E1,7.241652E2,4.9181274E1,3.5666104E2],"tree_param":{"num_deleted":"0","num_feature":"3","num_nodes":"119","size_leaf_vector":"1"}},{"base_weights":[-2.8012296E-6,-1.7736654E-1,1.4428477E0,-3.2170314E-1,2.1768449E-1,1.10838E0,2.2778823E0,-3.3204466E-1,4.6166566E-1,1.2326207E-1,5.886012E-1,7.9542035E-1,1.4221684E0,1.9270893E0,2.4298441E0,-3.82303E-1,-2.0627812E-1,3.326677E-1,9.764436E-1,8.042157E-1,8.2260266E-2,4.989893E-1,1.2518946E0,6.150122E-1,1.1141703E0,1.1873536E0,1.7614815E0,2.7697072E0,1.8095641E0,2.3778317E0,2.798948E0,1.511543E-3,-3.965793E-1,1.5665908E-1,-2.3704945E-1,1.9937468E-1,6.288198E-1,7.5612825E-1,1.5444924E-1,1.3168453E0,7.04E-1,-5.4602064E-2,2.257825E-1,3.2558295E-1,6.8563265E-1,1.0905863E0,1.6727531E0,1.3845799E0,5.5938256E-1,1.0421019E0,1.8535166E0,1.6319313E0,1.086093E0,1.696001E0,2.4771554E0,2.1428702E0,2.9311904E-1,1.6646719E0,2.1768627E0,1.9172171E0,2.4224923E0,2.8629544E-1,2.437292E0,4.236607E-2,-6.568726E-3,-3.0041406E-2,-4.1834384E-2,6.7031585E-2,1.0860735E-2,-2.8482152E-2,-1.0492262E-2,9.088221E-3,4.9514394E-2,1.4751334E-1,5.783555E-2,6.67068E-2,1.5250875E-1,1.1872975E-1,1.6737485E-1,4.821056E-2,9.1656946E-2,-9.466703E-3,1.2690121E-2,7.705161E-2,2.0343354E-2,1.339232E-1,3.0707825E-2,6.254416E-2,9.830531E-2,9.804205E-2,1.5453146E-1,1.2746477E-1,1.7574362E-1,7.5041346E-2,1.671493E-1,4.194184E-2,8.572524E-2,9.348949E-2,1.2069038E-1,1.6721244E-1,2.1392858E-1,2.0271428E-1,1.5203229E-1,9.277754E-2,1.51193E-1,2.5543952E-1,1.6649501E-1,2.3267186E-1,2.7887294E-1,1.5844886E-1,2.4397384E-1,1.4531277E-1,1.9151908E-1,2.1101867E-1,3.1387094E-1,1.6684379E-1,2.1909614E-1,2.3637049E-1,2.64535E-1,3.274885E-1,2.2396679E-1],"categories":[],"categories_nodes":[],"categories_segments":[],"categories_sizes":[],"default_left":[0,0,0,0,0,0,0,0,0,0,0,0,0,0,0,0,0,0,0,0,0,0,0,0,0,0,0,0,0,0,0,0,0,0,0,0,0,0,0,0,0,0,0,0,0,0,0,0,0,0,0,0,0,0,0,0,0,0,0,0,0,0,0,0,0,0,0,0,0,0,0,0,0,0,0,0,0,0,0,0,0,0,0,0,0,0,0,0,0,0,0,0,0,0,0,0,0,0,0,0,0,0,0,0,0,0,0,0,0,0,0,0,0,0,0,0,0,0,0,0,0],"id":2,"left_children":[1,3,5,7,9,11,13,15,17,19,21,23,25,27,29,31,33,35,37,39,41,43,45,47,49,51,53,55,57,59,61,63,65,67,69,71,73,75,-1,77,79,81,83,85,87,89,91,93,95,97,99,101,103,105,107,109,-1,111,113,115,117,-1,119,-1,-1,-1,-1,-1,-1,-1,-1,-1,-1,-1,-1,-1,-1,-1,-1,-1,-1,-1,-1,-1,-1,-1,-1,-1,-1,-1,-1,-1,-1,-1,-1,-1,-1,-1,-1,-1,-1,-1,-1,-1,-1,-1,-1,-1,-1,-1,-1,-1,-1,-1,-1,-1,-1,-1,-1,-1,-1],"loss_changes":[3.1473045E4,6.245052E3,3.7576113E3,6.4999414E2,1.0263763E3,9.430625E2,2.0051758E2,5.0034375E2,6.9106415E1,6.522178E2,3.528379E2,2.7625806E2,3.8033105E2,1.1068799E2,4.483496E1,3.099453E2,2.5251129E2,3.2937965E1,2.498735E1,6.723004E1,4.328732E2,1.6938745E2,4.6180298E1,1.3097998E2,9.074902E1,1.2606738E2,8.76958E1,8.003906E0,5.1096924E1,4.3851562E1,5.5981445E-1,5.7600998E1,1.1401758E2,4.3552715E1,1.3151343E2,1.8536636E1,1.0230026E1,9.429573E0,0E0,7.990509E0,5.200403E1,8.2045395E1,1.3079901E2,5.0580414E1,4.455249E1,2.4237E1,4.302063E0,3.6372192E1,1.1936908E2,2.6913696E1,4.364441E0,2.0067383E1,1.5473047E2,4.371875E1,1.114502E0,1.5427094E0,0E0,3.6518555E1,1.1822388E1,1.0861389E1,2.1851562E1,0E0,1.8833313E0,0E0,0E0,0E0,0E0,0E0,0E0,0E0,0E0,0E0,0E0,0E0,0E0,0E0,0E0,0E0,0E0,0E0,0E0,0E0,0E0,0E0,0E0,0E0,0E0,0E0,0E0,0E0,0E0,0E0,0E0,0E0,0E0,0E0,0E0,0E0,0E0,0E0,0E0,0E0,0E0,0E0,0E0,0E0,0E0,0E0,0E0,0E0,0E0,0E0,0E0,0E0,0E0,0E0,0E0,0E0,0E0,0E0,0E0],"parents":[2147483647,0,0,1,1,2,2,3,3,4,4,5,5,6,6,7,7,8,8,9,9,10,10,11,11,12,12,13,13,14,14,15,15,16,16,17,17,18,18,19,19,20,20,21,21,22,22,23,23,24,24,25,25,26,26,27,27,28,28,29,29,30,30,31,31,32,32,33,33,34,34,35,35,36,36,37,37,39,39,40,40,41,41,42,42,43,43,44,44,45,45,46,46,47,47,48,48,49,49,50,50,51,51,52,52,53,53,54,54,55,55,57,57,58,58,59,59,60,60,62,62],"right_children":[2,4,6,8,10,12,14,16,18,20,22,24,26,28,30,32,34,36,38,40,42,44,46,48,50,52,54,56,58,60,62,64,66,68,70,72,74,76,-1,78,80,82,84,86,88,90,92,94,96,98,100,102,104,106,108,110,-1,112,114,116,118,-1,120,-1,-1,-1,-1,-1,-1,-1,-1,-1,-1,-1,-1,-1,-1,-1,-1,-1,-1,-1,-1,-1,-1,-1,-1,-1,-1,-1,-1,-1,-1,-1,-1,-1,-1,-1,-1,-1,-1,-1,-1,-1,-1,-1,-1,-1,-1,-1,-1,-1,-1,-1,-1,-1,-1,-1,-1,-1,-1],"split_conditions":[8.6271775E-1,2.146305E-1,9.9427485E-1,3.342E1,1E-2,9.4897157E-1,1E-2,-2.0906012E-1,6.126E1,-9E-2,2.861E1,1E-2,1.3E-1,-1E-2,1.339E1,-2.851E1,-1.321E1,-1.0154911E-1,2.799E1,-1.686E1,5.239891E-1,6.556312E-1,7.5221956E-1,-1.115E1,3.06E1,-1E-2,3.342E1,9.972723E-1,8.52E0,9.960557E-1,2.799E1,-5.641E1,-1.53E0,-1.686E1,1E-2,4.794E1,-6.8E-1,1.15838416E-1,1.5444924E-1,-2.103E1,5.1395816E-1,6.97E0,-1.357E1,-3.283E1,1.033E1,2.799E1,3.06E1,8.8920647E-1,5.01E0,9.145088E-1,1.73E1,-3.66E0,9.66E0,-1.551E1,9.880882E-1,-9.54E0,2.9311904E-1,9.980851E-1,9.994459E-1,7.22E0,1.482E1,2.8629544E-1,1.536E1,4.236607E-2,-6.568726E-3,-3.0041406E-2,-4.1834384E-2,6.7031585E-2,1.0860735E-2,-2.8482152E-2,-1.0492262E-2,9.088221E-3,4.9514394E-2,1.4751334E-1,5.783555E-2,6.67068E-2,1.5250875E-1,1.1872975E-1,1.6737485E-1,4.821056E-2,9.1656946E-2,-9.466703E-3,1.2690121E-2,7.705161E-2,2.0343354E-2,1.339232E-1,3.0707825E-2,6.254416E-2,9.830531E-2,9.804205E-2,1.5453146E-1,1.2746477E-1,1.7574362E-1,7.5041346E-2,1.671493E-1,4.194184E-2,8.572524E-2,9.348949E-2,1.2069038E-1,1.6721244E-1,2.1392858E-1,2.0271428E-1,1.5203229E-1,9.277754E-2,1.51193E-1,2.5543952E-1,1.6649501E-1,2.3267186E-1,2.7887294E-1,1.5844886E-1,2.4397384E-1,1.4531277E-1,1.9151908E-1,2.1101867E-1,3.1387094E-1,1.6684379E-1,2.1909614E-1,2.3637049E-1,2.64535E-1,3.274885E-1,2.2396679E-1],"split_indices":[0,0,0,2,1,0,1,0,2,1,2,1,1,1,1,2,2,0,1,1,0,0,0,2,2,2,2,0,2,0,1,2,1,1,2,2,1,0,0,2,0,2,2,2,1,1,2,0,2,0,1,1,2,2,0,1,0,0,0,2,2,0,2,0,0,0,0,0,0,0,0,0,0,0,0,0,0,0,0,0,0,0,0,0,0,0,0,0,0,0,0,0,0,0,0,0,0,0,0,0,0,0,0,0,0,0,0,0,0,0,0,0,0,0,0,0,0,0,0,0,0],"split_type":[0,0,0,0,0,0,0,0,0,0,0,0,0,0,0,0,0,0,0,0,0,0,0,0,0,0,0,0,0,0,0,0,0,0,0,0,0,0,0,0,0,0,0,0,0,0,0,0,0,0,0,0,0,0,0,0,0,0,0,0,0,0,0,0,0,0,0,0,0,0,0,0,0,0,0,0,0,0,0,0,0,0,0,0,0,0,0,0,0,0,0,0,0,0,0,0,0,0,0,0,0,0,0,0,0,0,0,0,0,0,0,0,0,0,0,0,0,0,0,0,0],"sum_hessian":[1.22983125E5,1.0952103E5,1.3462097E4,8.0214055E4,2.9306975E4,9.613712E3,3.848384E3,7.9169484E4,1.0445676E3,2.336133E4,5.945646E3,4.8149824E3,4.79873E3,1.1673417E3,2.6810425E3,5.656369E4,2.2605797E4,8.365766E2,2.0799107E2,1.325696E3,2.2035633E4,5.2395303E3,7.061154E2,3.0765989E3,1.7383838E3,2.8387378E3,1.959992E3,1.4012492E2,1.0272168E3,2.356427E3,3.2461545E2,2.028517E3,5.453517E4,1.7664966E3,2.08393E4,5.7807025E2,2.5850635E2,1.5154578E2,5.644531E1,2.1479965E2,1.1108964E3,1.1279837E4,1.0755797E4,2.7175012E3,2.522029E3,5.130593E2,1.9305614E2,2.0579477E2,2.870804E3,1.5861791E3,1.5220467E2,5.238212E2,2.3149165E3,1.7987825E3,1.6120956E2,3.1626944E1,1.08497986E2,7.405976E2,2.8661917E2,2.1216408E2,2.144263E3,2.699272E2,5.4688255E1,2.7783392E2,1.7506831E3,1.0067471E4,4.4467703E4,1.5000835E2,1.6164883E3,1.5304586E4,5.5347153E3,4.238889E2,1.5418135E2,1.29582615E1,2.4554808E2,1.3748935E2,1.4056419E1,1.607703E2,5.402936E1,5.451255E2,5.657709E2,9.240559E3,2.0392789E3,4.225711E2,1.0333226E4,4.7440414E1,2.6700608E3,2.100117E3,4.219122E2,4.155429E2,9.751641E1,3.667847E1,1.5637767E2,6.523057E1,1.405642E2,1.9547208E3,9.160832E2,9.6506104E2,6.2111804E2,9.7296776E1,5.4907887E1,1.1157283E2,4.122484E2,1.6898452E3,6.250714E2,5.9959415E1,1.738823E3,1.1442804E2,4.678152E1,1.3177893E1,1.844905E1,4.052202E2,3.3537738E2,2.7102533E2,1.5593841E1,1.148673E2,9.7296776E1,1.7058783E3,4.3838458E2,7.467473E0,4.7220783E1],"tree_param":{"num_deleted":"0","num_feature":"3","num_nodes":"121","size_leaf_vector":"1"}},{"base_weights":[-9.586365E-4,9.394225E-1,-1.7024082E-1,1.2511462E0,6.430686E-1,1.2978461E-1,-2.7798602E-1,1.4904423E0,1.0025117E0,8.949748E-1,4.6386406E-1,4.6832848E-1,3.9655846E-2,5.5185884E-2,-2.9832426E-1,1.5880085E0,1.2585974E0,1.3482233E0,9.0012914E-1,8.4185565E-1,1.640555E0,1.0746531E0,4.0614775E-1,9.1757995E-1,4.0473646E-1,1.0417813E-2,6.599985E-1,2.46677E-1,-4.3871466E-2,-3.2521024E-1,-6.5323696E-2,1.7008922E0,1.4941621E0,1.2045301E0,1.5197481E0,1.4031163E0,8.886058E-1,1.0041999E0,6.0522443E-1,9.590595E-1,7.343323E-1,1.7680357E0,1.0614063E0,1.2675798E0,8.2656723E-1,3.26103E-1,8.4767264E-1,9.98518E-1,7.2323054E-1,5.573823E-1,3.0478126E-1,-3.1693004E-2,2.518884E-1,6.038909E-1,1.1362844E0,4.3946347E-1,6.379555E-2,2.3534165E-1,-9.712509E-2,-2.6969677E-1,-4.0441158E-1,-1.2293267E-1,3.9811805E-1,1.7598832E-1,1.5101956E-1,1.40645E-1,1.7337143E-1,1.2762176E-1,9.295582E-2,2.1722107E-1,1.4668319E-1,1.8321447E-1,1.3647345E-1,1.01665735E-1,-3.0044327E-2,1.1555765E-1,8.8668466E-2,6.654873E-2,1.951561E-2,1.0470136E-1,7.7036984E-2,6.654654E-2,1.16160154E-1,1.1484303E-2,1.7762189E-1,7.495594E-2,1.60475E-1,1.15805246E-1,1.717745E-1,6.95849E-2,1.2537336E-1,4.8062563E-2,2.4343817E-2,7.2572805E-2,1.3240807E-1,1.237179E-1,8.294469E-2,5.746441E-2,1.0415276E-1,7.675686E-2,4.5369517E-2,2.7146801E-2,6.985885E-2,1.1916316E-2,-1.34518435E-2,3.7334424E-2,1.0590412E-2,1.05364084E-1,5.3331222E-2,1.5680757E-1,1.0228205E-1,6.5356456E-2,2.7486077E-2,-2.5390766E-3,3.226745E-2,3.4495994E-2,8.903987E-3,-5.2202023E-3,-3.304365E-2,-3.172714E-2,-1.1447235E-2,-2.8952895E-2,-4.186729E-2,1.5117424E-2,-2.1598777E-2,2.011246E-2,5.8490288E-2],"categories":[],"categories_nodes":[],"categories_segments":[],"categories_sizes":[],"default_left":[0,0,0,0,0,0,0,0,0,0,0,0,0,0,0,0,0,0,0,0,0,0,0,0,0,0,0,0,0,0,0,0,0,0,0,0,0,0,0,0,0,0,0,0,0,0,0,0,0,0,0,0,0,0,0,0,0,0,0,0,0,0,0,0,0,0,0,0,0,0,0,0,0,0,0,0,0,0,0,0,0,0,0,0,0,0,0,0,0,0,0,0,0,0,0,0,0,0,0,0,0,0,0,0,0,0,0,0,0,0,0,0,0,0,0,0,0,0,0,0,0,0,0,0,0,0,0],"id":3,"left_children":[1,3,5,7,9,11,13,15,17,19,21,23,25,27,29,31,33,35,37,39,41,43,45,47,49,51,53,55,57,59,61,63,65,67,69,71,73,75,77,79,81,83,85,87,89,91,93,95,97,99,101,103,105,107,109,111,113,115,117,119,121,123,125,-1,-1,-1,-1,-1,-1,-1,-1,-1,-1,-1,-1,-1,-1,-1,-1,-1,-1,-1,-1,-1,-1,-1,-1,-1,-1,-1,-1,-1,-1,-1,-1,-1,-1,-1,-1,-1,-1,-1,-1,-1,-1,-1,-1,-1,-1,-1,-1,-1,-1,-1,-1,-1,-1,-1,-1,-1,-1,-1,-1,-1,-1,-1,-1],"loss_changes":[2.1085664E4,1.8658887E3,3.6286506E3,5.843662E2,4.672954E2,9.0499524E2,5.596582E2,1.114541E2,1.6982324E2,1.6914355E2,2.1305383E2,1.7778455E2,4.248728E2,9.0158035E1,4.875952E2,3.4814453E1,1.921289E1,2.6558472E1,1.1390503E2,4.997339E1,1.91875E1,2.3948303E1,1.9533234E2,1.1429016E1,8.320691E1,2.2749802E2,2.7490112E1,5.7102974E1,4.6608253E1,3.0672168E2,2.1507487E2,1.5268555E1,3.8191895E1,2.324768E1,5.5076904E0,1.3683105E1,1.8623558E1,4.8009277E1,2.3983337E1,3.1071045E1,6.1065063E1,2.939087E0,7.94228E0,1.2403503E1,1.2045151E1,5.9752747E1,4.8349915E1,2.087323E1,1.031443E1,4.6750793E1,4.316098E1,2.9552777E2,5.8866486E1,2.9447418E1,3.7845306E0,2.7614502E1,1.923484E1,8.022163E0,2.7567852E1,3.0297046E2,4.6990723E1,1.8276997E2,3.265596E1,0E0,0E0,0E0,0E0,0E0,0E0,0E0,0E0,0E0,0E0,0E0,0E0,0E0,0E0,0E0,0E0,0E0,0E0,0E0,0E0,0E0,0E0,0E0,0E0,0E0,0E0,0E0,0E0,0E0,0E0,0E0,0E0,0E0,0E0,0E0,0E0,0E0,0E0,0E0,0E0,0E0,0E0,0E0,0E0,0E0,0E0,0E0,0E0,0E0,0E0,0E0,0E0,0E0,0E0,0E0,0E0,0E0,0E0,0E0,0E0,0E0,0E0,0E0,0E0],"parents":[2147483647,0,0,1,1,2,2,3,3,4,4,5,5,6,6,7,7,8,8,9,9,10,10,11,11,12,12,13,13,14,14,15,15,16,16,17,17,18,18,19,19,20,20,21,21,22,22,23,23,24,24,25,25,26,26,27,27,28,28,29,29,30,30,31,31,32,32,33,33,34,34,35,35,36,36,37,37,38,38,39,39,40,40,41,41,42,42,43,43,44,44,45,45,46,46,47,47,48,48,49,49,50,50,51,51,52,52,53,53,54,54,55,55,56,56,57,57,58,58,59,59,60,60,61,61,62,62],"right_children":[2,4,6,8,10,12,14,16,18,20,22,24,26,28,30,32,34,36,38,40,42,44,46,48,50,52,54,56,58,60,62,64,66,68,70,72,74,76,78,80,82,84,86,88,90,92,94,96,98,100,102,104,106,108,110,112,114,116,118,120,122,124,126,-1,-1,-1,-1,-1,-1,-1,-1,-1,-1,-1,-1,-1,-1,-1,-1,-1,-1,-1,-1,-1,-1,-1,-1,-1,-1,-1,-1,-1,-1,-1,-1,-1,-1,-1,-1,-1,-1,-1,-1,-1,-1,-1,-1,-1,-1,-1,-1,-1,-1,-1,-1,-1,-1,-1,-1,-1,-1,-1,-1,-1,-1,-1,-1],"split_conditions":[-8.987592E-1,0E0,-4.4521505E-1,-9.94992E-1,-9.831501E-1,0E0,-1.616E1,-1.53E0,-1.837E1,1E-2,-1.498E1,-2.541E1,1.3E-1,-3.04E1,1.658E1,-1.024E1,-1E-2,-1.53E0,-9.392397E-1,-3.36E0,-9.935084E-1,-1.999E1,1E-2,-3.04E1,-8.036969E-1,1E-2,2.063E1,0E0,-2.7572396E-1,4.1244003E-1,4.794E1,-3.99E0,-1.38E0,-1E-2,-1.26E0,-5.641E1,-9.1646844E-1,-4.32E0,-6.8E-1,-9.920471E-1,1.13E0,-5.641E1,1.769E1,-2.322E1,-9.2249006E-1,-9.5911855E-1,5.3E-1,-7.766595E-1,-5.74E0,-9.47E0,1.256E1,-5.8E-1,-6.626171E-1,-6.37E0,-8.096854E-1,7.6758265E-2,1.31E0,-1.999E1,8.4636647E-1,1E-2,-4.35E0,1.435602E-1,6.126E1,1.7598832E-1,1.5101956E-1,1.40645E-1,1.7337143E-1,1.2762176E-1,9.295582E-2,2.1722107E-1,1.4668319E-1,1.8321447E-1,1.3647345E-1,1.01665735E-1,-3.0044327E-2,1.1555765E-1,8.8668466E-2,6.654873E-2,1.951561E-2,1.0470136E-1,7.7036984E-2,6.654654E-2,1.16160154E-1,1.1484303E-2,1.7762189E-1,7.495594E-2,1.60475E-1,1.15805246E-1,1.717745E-1,6.95849E-2,1.2537336E-1,4.8062563E-2,2.4343817E-2,7.2572805E-2,1.3240807E-1,1.237179E-1,8.294469E-2,5.746441E-2,1.0415276E-1,7.675686E-2,4.5369517E-2,2.7146801E-2,6.985885E-2,1.1916316E-2,-1.34518435E-2,3.7334424E-2,1.0590412E-2,1.05364084E-1,5.3331222E-2,1.5680757E-1,1.0228205E-1,6.5356456E-2,2.7486077E-2,-2.5390766E-3,3.226745E-2,3.4495994E-2,8.903987E-3,-5.2202023E-3,-3.304365E-2,-3.172714E-2,-1.1447235E-2,-2.8952895E-2,-4.186729E-2,1.5117424E-2,-2.1598777E-2,2.011246E-2,5.8490288E-2],"split_indices":[0,1,0,0,0,1,2,1,2,1,2,2,1,2,2,2,2,1,0,2,0,2,2,2,0,2,1,1,0,0,2,1,2,1,1,2,0,1,1,0,2,2,2,2,0,0,1,0,1,2,2,2,0,2,0,0,1,2,0,2,2,0,2,0,0,0,0,0,0,0,0,0,0,0,0,0,0,0,0,0,0,0,0,0,0,0,0,0,0,0,0,0,0,0,0,0,0,0,0,0,0,0,0,0,0,0,0,0,0,0,0,0,0,0,0,0,0,0,0,0,0,0,0,0,0,0,0],"split_type":[0,0,0,0,0,0,0,0,0,0,0,0,0,0,0,0,0,0,0,0,0,0,0,0,0,0,0,0,0,0,0,0,0,0,0,0,0,0,0,0,0,0,0,0,0,0,0,0,0,0,0,0,0,0,0,0,0,0,0,0,0,0,0,0,0,0,0,0,0,0,0,0,0,0,0,0,0,0,0,0,0,0,0,0,0,0,0,0,0,0,0,0,0,0,0,0,0,0,0,0,0,0,0,0,0,0,0,0,0,0,0,0,0,0,0,0,0,0,0,0,0,0,0,0,0,0,0],"sum_hessian":[1.3245414E5,2.0205549E4,1.1224859E5,9.845847E3,1.0359702E4,2.9659385E4,8.258921E4,5.0145957E3,4.831251E3,4.304671E3,6.055031E3,6.2350273E3,2.3424357E4,4.751444E3,7.7837766E4,3.5252363E3,1.4893595E3,1.1010857E3,3.7301653E3,4.0203672E3,2.8430362E2,5.2124805E2,5.5337827E3,7.7147144E2,5.4635557E3,2.2370982E4,1.053374E3,1.6194126E3,3.1320315E3,6.978488E4,8.0528877E3,1.5925299E3,1.9327064E3,1.2385491E3,2.5081047E2,9.8177734E2,1.1930835E2,2.755393E3,9.7477216E2,1.9198024E3,2.100565E3,2.3133089E2,5.2972717E1,2.9090967E2,2.3033836E2,4.685991E3,8.477918E2,5.4172766E2,2.2974374E2,2.1601392E3,3.3034167E3,1.9049713E4,3.3212708E3,9.4439056E2,1.0898343E2,7.876742E2,8.317384E2,5.011327E2,2.6308987E3,4.1030426E4,2.8754455E4,7.163189E3,8.8969855E2,1.2099957E3,3.8253418E2,1.4197393E3,5.1296716E2,9.795349E2,2.5901416E2,1.5810893E1,2.3499957E2,7.678219E1,9.049952E2,1.078398E2,1.146855E1,1.2003434E3,1.5550497E3,8.4933295E2,1.2543923E2,1.3063318E3,6.134706E2,1.8111951E3,2.8936984E2,1.2134868E0,2.301174E2,3.5167946E1,1.7804771E1,2.3685435E2,5.405532E1,1.7838066E2,5.195771E1,1.6314893E3,3.054502E3,6.7702045E2,1.707714E2,2.2201439E2,3.197133E2,1.5853998E2,7.120377E1,7.114801E2,1.448659E3,3.0473245E3,2.560922E2,7.7214053E3,1.1328308E4,1.8120917E3,1.5091791E3,1.2621024E2,8.181803E2,2.0010944E1,8.897249E1,3.4106955E2,4.4660464E2,6.192892E2,2.124492E2,2.8570618E2,2.154265E2,2.2071462E3,4.2375247E2,3.1404303E4,9.626121E3,3.1776907E3,2.5576766E4,1.8153109E3,5.3478784E3,4.3402692E2,4.5567163E2],"tree_param":{"num_deleted":"0","num_feature":"3","num_nodes":"127","size_leaf_vector":"1"}},{"base_weights":[1.2733081E-3,6.104346E-2,-5.951852E-1,-4.0507245E-1,1.5097581E-1,-4.3295422E-1,-8.6513823E-1,-7.0441616E-1,-2.2067463E-1,2.035421E-1,-2.4614386E-1,-2.9977325E-1,-6.4046633E-1,-6.876067E-1,-9.404972E-1,-9.5464873E-1,-6.344823E-1,-6.3368714E-1,-1.4522198E-1,-1.6889443E-1,2.388894E-1,-1.794368E-1,-7.2646093E-1,-7.6374656E-1,-2.640596E-1,-5.937137E-1,-1.1304764E0,-1.1328797E0,-6.233315E-1,-9.0490055E-1,-1.1903299E0,-1.0702717E0,-8.217678E-1,-7.4143517E-1,-4.6499008E-1,-1.0480905E0,-5.5753726E-1,-1.0903726E-1,-7.022961E-1,-2.957099E-1,-4.774422E-2,2.8171244E-1,9.6521646E-2,-9.00389E-1,-1.5353765E-1,-6.093586E-1,-1.1789614E0,-1.3703842E-1,-6.948035E-1,-2.1908262E-1,-6.0909164E-1,-5.6559545E-1,-9.236662E-1,-1.0185814E0,-1.3125739E0,-1.0657034E0,-1.3441381E-1,-5.752391E-1,-9.5731974E-1,-6.835487E-1,-9.26225E-1,-1.1277416E0,-1.2818365E-1,-1.3508134E-1,-1.0321965E-1,-1.0956843E-1,-7.1854055E-2,-8.2548514E-2,-6.041817E-2,-7.718514E-2,-4.0493112E-2,-1.09941386E-1,-6.8750285E-2,-6.6645294E-2,-4.7686603E-2,-2.3242405E-2,-5.648882E-3,-4.619423E-2,-8.88921E-2,-3.957891E-2,-2.0457307E-2,-3.6753774E-2,6.521289E-5,1.2395635E-2,3.5767738E-2,1.2587956E-2,-6.1352565E-3,-1.1306198E-1,-7.049545E-2,-3.9808784E-2,-1.1340439E-2,-5.149625E-2,-7.452852E-2,-9.167523E-2,-1.2701963E-1,-9.832286E-2,-6.631344E-2,-4.2797953E-2,-1.8456738E-2,-5.647094E-2,-1.03914E-1,-8.332764E-2,-5.347493E-2,-1.3288069E-1,-7.922002E-2,-7.9732336E-2,-1.1666258E-1,-1.334052E-1,-7.772525E-2,-9.4113745E-2,-1.2238734E-1,-4.742476E-2,-6.922298E-2,-1.2770966E-1,-8.971582E-2,-1.2199854E-1,-6.3735984E-2,-8.926592E-2,-1.0532826E-1,-1.3618019E-1,-1.08471535E-1],"categories":[],"categories_nodes":[],"categories_segments":[],"categories_sizes":[],"default_left":[0,0,0,0,0,0,0,0,0,0,0,0,0,0,0,0,0,0,0,0,0,0,0,0,0,0,0,0,0,0,0,0,0,0,0,0,0,0,0,0,0,0,0,0,0,0,0,0,0,0,0,0,0,0,0,0,0,0,0,0,0,0,0,0,0,0,0,0,0,0,0,0,0,0,0,0,0,0,0,0,0,0,0,0,0,0,0,0,0,0,0,0,0,0,0,0,0,0,0,0,0,0,0,0,0,0,0,0,0,0,0,0,0,0,0,0,0,0,0,0,0],"id":4,"left_children":[1,3,5,7,9,11,13,15,17,19,21,23,25,27,29,31,33,35,37,39,41,43,45,47,49,51,53,55,57,59,61,63,65,67,69,71,73,75,77,79,81,83,85,87,89,91,93,-1,95,97,99,101,103,105,107,109,-1,111,113,115,117,119,-1,-1,-1,-1,-1,-1,-1,-1,-1,-1,-1,-1,-1,-1,-1,-1,-1,-1,-1,-1,-1,-1,-1,-1,-1,-1,-1,-1,-1,-1,-1,-1,-1,-1,-1,-1,-1,-1,-1,-1,-1,-1,-1,-1,-1,-1,-1,-1,-1,-1,-1,-1,-1,-1,-1,-1,-1,-1,-1],"loss_changes":[7.730073E3,8.261466E3,8.645342E2,1.7592954E3,3.4487559E3,3.4078394E2,9.852002E1,2.1201562E2,6.146285E2,1.9206963E3,6.186483E2,1.2435132E2,1.0979993E2,6.261621E1,4.5174805E1,3.986548E1,1.718518E2,9.556177E1,3.3615744E2,1.942908E2,8.123423E2,3.165146E2,1.24055786E2,2.149472E1,1.0820102E2,4.03385E1,7.1985474E0,2.5108948E0,3.0540344E1,2.0874023E1,2.2509155E0,1.3717651E1,3.422339E1,6.666846E1,6.746753E1,7.975891E0,2.2315308E1,1.0154939E2,4.521689E1,5.6275513E1,1.0012242E2,1.2275474E3,1.4282498E2,2.5654785E1,1.60637E2,2.3644653E1,1.0390869E1,0E0,3.76857E0,4.4461426E1,1.4768402E1,3.3085327E1,1.7283966E1,7.71521E0,7.564392E-1,3.0971527E0,0E0,1.9692566E1,3.5124664E0,9.237305E0,1.677246E1,2.4665222E0,0E0,0E0,0E0,0E0,0E0,0E0,0E0,0E0,0E0,0E0,0E0,0E0,0E0,0E0,0E0,0E0,0E0,0E0,0E0,0E0,0E0,0E0,0E0,0E0,0E0,0E0,0E0,0E0,0E0,0E0,0E0,0E0,0E0,0E0,0E0,0E0,0E0,0E0,0E0,0E0,0E0,0E0,0E0,0E0,0E0,0E0,0E0,0E0,0E0,0E0,0E0,0E0,0E0,0E0,0E0,0E0,0E0,0E0,0E0],"parents":[2147483647,0,0,1,1,2,2,3,3,4,4,5,5,6,6,7,7,8,8,9,9,10,10,11,11,12,12,13,13,14,14,15,15,16,16,17,17,18,18,19,19,20,20,21,21,22,22,23,23,24,24,25,25,26,26,27,27,28,28,29,29,30,30,31,31,32,32,33,33,34,34,35,35,36,36,37,37,38,38,39,39,40,40,41,41,42,42,43,43,44,44,45,45,46,46,48,48,49,49,50,50,51,51,52,52,53,53,54,54,55,55,57,57,58,58,59,59,60,60,61,61],"right_children":[2,4,6,8,10,12,14,16,18,20,22,24,26,28,30,32,34,36,38,40,42,44,46,48,50,52,54,56,58,60,62,64,66,68,70,72,74,76,78,80,82,84,86,88,90,92,94,-1,96,98,100,102,104,106,108,110,-1,112,114,116,118,120,-1,-1,-1,-1,-1,-1,-1,-1,-1,-1,-1,-1,-1,-1,-1,-1,-1,-1,-1,-1,-1,-1,-1,-1,-1,-1,-1,-1,-1,-1,-1,-1,-1,-1,-1,-1,-1,-1,-1,-1,-1,-1,-1,-1,-1,-1,-1,-1,-1,-1,-1,-1,-1,-1,-1,-1,-1,-1,-1],"split_conditions":[9.145088E-1,0E0,9.9427485E-1,-9.4963837E-1,1E-2,1.3E-1,1E-2,-8.38E0,-2.541E1,-9.2800844E-1,3.06E1,-1.115E1,3.342E1,-1E-2,1.339E1,-9.9622166E-1,-9.94992E-1,-5.641E1,1.71E1,-9.831501E-1,2.3E-1,-9.1646844E-1,6.126E1,-4.024E1,1.536E1,1.484E1,1.73E1,-5.8E-1,1.482E1,9.960557E-1,2.542E1,-3.63E1,-2.541E1,-1.53E0,-1.837E1,-3.66E0,-3.63E1,-1.208E1,2.542E1,-3.36E0,-1.176E1,-1E-2,1.769E1,-9.935084E-1,-3.57E0,4.148E1,9.6E0,-1.3703842E-1,-1.686E1,0E0,4.148E1,-4.71E0,1.363E1,4.148E1,9.925283E-1,9.989523E-1,-1.3441381E-1,9.980851E-1,1.594E1,-1.115E1,1.482E1,1.38E0,-1.2818365E-1,-1.3508134E-1,-1.0321965E-1,-1.0956843E-1,-7.1854055E-2,-8.2548514E-2,-6.041817E-2,-7.718514E-2,-4.0493112E-2,-1.09941386E-1,-6.8750285E-2,-6.6645294E-2,-4.7686603E-2,-2.3242405E-2,-5.648882E-3,-4.619423E-2,-8.88921E-2,-3.957891E-2,-2.0457307E-2,-3.6753774E-2,6.521289E-5,1.2395635E-2,3.5767738E-2,1.2587956E-2,-6.1352565E-3,-1.1306198E-1,-7.049545E-2,-3.9808784E-2,-1.1340439E-2,-5.149625E-2,-7.452852E-2,-9.167523E-2,-1.2701963E-1,-9.832286E-2,-6.631344E-2,-4.2797953E-2,-1.8456738E-2,-5.647094E-2,-1.03914E-1,-8.332764E-2,-5.347493E-2,-1.3288069E-1,-7.922002E-2,-7.9732336E-2,-1.1666258E-1,-1.334052E-1,-7.772525E-2,-9.4113745E-2,-1.2238734E-1,-4.742476E-2,-6.922298E-2,-1.2770966E-1,-8.971582E-2,-1.2199854E-1,-6.3735984E-2,-8.926592E-2,-1.0532826E-1,-1.3618019E-1,-1.08471535E-1],"split_indices":[0,1,0,0,1,1,1,1,2,0,2,2,2,1,1,0,0,2,2,0,2,0,2,2,2,1,1,2,2,0,2,2,2,1,2,1,2,2,2,2,2,2,2,0,2,2,1,0,1,2,2,2,2,2,0,0,0,0,2,2,2,2,0,0,0,0,0,0,0,0,0,0,0,0,0,0,0,0,0,0,0,0,0,0,0,0,0,0,0,0,0,0,0,0,0,0,0,0,0,0,0,0,0,0,0,0,0,0,0,0,0,0,0,0,0,0,0,0,0,0,0],"split_type":[0,0,0,0,0,0,0,0,0,0,0,0,0,0,0,0,0,0,0,0,0,0,0,0,0,0,0,0,0,0,0,0,0,0,0,0,0,0,0,0,0,0,0,0,0,0,0,0,0,0,0,0,0,0,0,0,0,0,0,0,0,0,0,0,0,0,0,0,0,0,0,0,0,0,0,0,0,0,0,0,0,0,0,0,0,0,0,0,0,0,0,0,0,0,0,0,0,0,0,0,0,0,0,0,0,0,0,0,0,0,0,0,0,0,0,0,0,0,0,0,0],"sum_hessian":[2.1682781E5,1.9707967E5,1.974814E4,3.1874074E4,1.652056E5,1.2336813E4,7.411327E3,1.2149028E4,1.9725045E4,1.4589423E5,1.931137E4,7.5156953E3,4.821118E3,2.2115215E3,5.199805E3,2.6509446E3,9.498084E3,3.0457625E3,1.6679283E4,1.2645994E4,1.3324823E5,1.6957643E4,2.353726E3,5.3570514E2,6.97999E3,4.4032124E3,4.1790567E2,2.7686758E2,1.9346539E3,4.555369E3,6.444364E2,1.4137499E3,1.2371946E3,5.821336E3,3.6767478E3,4.7082043E2,2.574942E3,1.5663084E4,1.0161993E3,6.1778315E3,6.4681626E3,1.0243549E5,3.081274E4,5.8688293E2,1.637076E4,1.8716975E3,4.820287E2,5.274236E1,4.829628E2,6.176484E3,8.0350665E2,4.0599417E3,3.4327072E2,2.6293283E2,1.5497285E2,2.1465556E2,6.221203E1,1.6935193E3,2.4113466E2,4.0319418E2,4.152175E3,3.905992E2,2.5383722E2,1.6482547E2,1.2489244E3,3.3599866E2,9.01196E2,3.6073105E3,2.2140256E3,5.998851E2,3.0768628E3,4.103634E2,6.0457027E1,1.0925754E3,1.4823666E3,4.677237E3,1.0985848E4,4.4568195E2,5.7051733E2,2.942868E3,3.2349639E3,8.493344E2,5.618828E3,3.329484E4,6.914066E4,2.5981488E4,4.831253E3,2.6725705E2,3.196259E2,2.3066108E3,1.4064149E4,1.1074218E3,7.642758E2,1.272784E2,3.5475027E2,4.4810028E1,4.3815277E2,8.741937E2,5.30229E3,7.3043665E2,7.307002E1,4.1681717E2,3.6431245E3,8.186834E1,2.6140237E2,1.0796321E2,1.5496962E2,1.4756044E2,7.412411E0,1.2397211E2,9.068346E1,9.116211E2,7.818982E2,3.497961E1,2.0615506E2,2.9949368E1,3.732448E2,3.2908352E3,8.613396E2,5.5893005E1,3.347062E2],"tree_param":{"num_deleted":"0","num_feature":"3","num_nodes":"121","size_leaf_vector":"1"}},{"base_weights":[-1.211511E-3,-2.0581861E-1,9.6670073E-1,-3.3454528E-1,8.376126E-2,6.458202E-1,1.4899166E0,-3.4765393E-1,1.3216929E-1,-2.1833573E-2,2.5906837E-1,5.1210976E-1,9.28484E-1,1.261742E0,1.699868E0,-2.4492584E-2,-3.6337632E-1,7.4158437E-3,6.117697E-1,-4.4047285E-2,7.0377326E-1,1.771373E-1,5.311853E-1,3.8350376E-1,7.782204E-1,8.5477984E-1,1.2981738E0,1.1340624E0,1.5316845E0,1.4877003E0,1.7772235E0,3.818908E-1,-7.6353535E-2,-4.055616E-1,-2.7353933E-1,-6.321087E-2,2.0044963E-1,4.5708647E-1,9.224535E-1,4.5047414E-1,-6.889049E-2,5.162405E-1,9.6528727E-1,7.106919E-1,1.2759204E-1,4.8352915E-1,9.79728E-1,8.728226E-1,3.3292052E-1,7.101529E-1,1.4004076E0,1.1504685E0,7.8704244E-1,1.1468114E0,1.524583E0,1.491976E0,1.0846345E0,1.4419048E0,1.6561726E0,1.956133E0,1.4076375E0,1.7417295E0,1.9329715E0,5.2942116E-2,2.0156805E-3,-1.6622648E-2,1.3966188E-2,-3.1038767E-2,-4.2511642E-2,3.7597944E-3,-2.9373407E-2,7.531859E-2,-7.743647E-3,1.3628222E-1,1.9028118E-2,7.821696E-2,2.6249995E-2,6.791773E-2,9.865111E-2,7.540443E-2,3.184377E-2,-1.2206204E-2,4.250677E-3,7.1093634E-2,2.6517166E-2,7.1860425E-2,1.300678E-1,9.4261885E-2,5.593763E-2,7.1056984E-2,1.111455E-2,3.672565E-2,5.7376176E-2,8.694224E-2,1.4437547E-1,8.232281E-2,2.2412646E-1,2.0641845E-2,4.6643585E-2,6.1978318E-2,9.0381294E-2,1.23395614E-1,1.5405749E-1,1.19561255E-1,6.0319412E-2,5.9111655E-2,9.445696E-2,1.5179378E-1,9.460089E-2,1.800965E-1,1.4764754E-1,1.3749813E-1,1.9197278E-1,8.226307E-2,1.1758285E-1,1.5577722E-1,1.20485544E-1,1.4787042E-1,1.7912115E-1,1.7511351E-1,2.15624E-1,1.3405116E-1,1.8407978E-1,1.7128865E-1,1.8764353E-1,1.8815735E-1,2.2366329E-1],"categories":[],"categories_nodes":[],"categories_segments":[],"categories_sizes":[],"default_left":[0,0,0,0,0,0,0,0,0,0,0,0,0,0,0,0,0,0,0,0,0,0,0,0,0,0,0,0,0,0,0,0,0,0,0,0,0,0,0,0,0,0,0,0,0,0,0,0,0,0,0,0,0,0,0,0,0,0,0,0,0,0,0,0,0,0,0,0,0,0,0,0,0,0,0,0,0,0,0,0,0,0,0,0,0,0,0,0,0,0,0,0,0,0,0,0,0,0,0,0,0,0,0,0,0,0,0,0,0,0,0,0,0,0,0,0,0,0,0,0,0,0,0,0,0,0,0],"id":5,"left_children":[1,3,5,7,9,11,13,15,17,19,21,23,25,27,29,31,33,35,37,39,41,43,45,47,49,51,53,55,57,59,61,63,65,67,69,71,73,75,77,79,81,83,85,87,89,91,93,95,97,99,101,103,105,107,109,111,113,115,117,119,121,123,125,-1,-1,-1,-1,-1,-1,-1,-1,-1,-1,-1,-1,-1,-1,-1,-1,-1,-1,-1,-1,-1,-1,-1,-1,-1,-1,-1,-1,-1,-1,-1,-1,-1,-1,-1,-1,-1,-1,-1,-1,-1,-1,-1,-1,-1,-1,-1,-1,-1,-1,-1,-1,-1,-1,-1,-1,-1,-1,-1,-1,-1,-1,-1,-1],"loss_changes":[2.4375682E4,3.7875303E3,3.6050332E3,4.303755E2,5.788253E2,5.0277344E2,3.8896484E2,3.4760742E2,1.1501289E2,3.1458035E2,2.6196307E2,3.0913257E2,1.1536548E2,1.332373E2,6.709277E1,6.694884E1,2.4714551E2,2.0824497E1,1.864795E1,2.3267116E2,2.7933594E1,2.3876657E2,5.7659058E1,1.5063275E2,1.2372473E2,7.053955E1,2.2536621E1,4.5484375E1,1.1634766E1,4.0053467E1,1.3817383E1,1.9175705E1,5.470699E1,8.248926E1,1.3101941E2,1.3046959E1,4.5766754E0,1.6677578E1,1.3700867E0,3.607132E1,1.0680718E2,1.6420471E1,1.9001556E1,2.6408386E1,7.920474E1,2.5602173E1,1.2064011E1,3.6884247E1,9.327014E1,4.5931885E1,4.850464E0,1.5651123E1,8.911182E1,3.051532E1,1.0757446E0,1.3395386E1,5.5016846E1,1.8356934E1,9.788818E0,2.953308E0,2.5979126E1,6.6621094E0,4.6540527E0,0E0,0E0,0E0,0E0,0E0,0E0,0E0,0E0,0E0,0E0,0E0,0E0,0E0,0E0,0E0,0E0,0E0,0E0,0E0,0E0,0E0,0E0,0E0,0E0,0E0,0E0,0E0,0E0,0E0,0E0,0E0,0E0,0E0,0E0,0E0,0E0,0E0,0E0,0E0,0E0,0E0,0E0,0E0,0E0,0E0,0E0,0E0,0E0,0E0,0E0,0E0,0E0,0E0,0E0,0E0,0E0,0E0,0E0,0E0,0E0,0E0,0E0,0E0,0E0],"parents":[2147483647,0,0,1,1,2,2,3,3,4,4,5,5,6,6,7,7,8,8,9,9,10,10,11,11,12,12,13,13,14,14,15,15,16,16,17,17,18,18,19,19,20,20,21,21,22,22,23,23,24,24,25,25,26,26,27,27,28,28,29,29,30,30,31,31,32,32,33,33,34,34,35,35,36,36,37,37,38,38,39,39,40,40,41,41,42,42,43,43,44,44,45,45,46,46,47,47,48,48,49,49,50,50,51,51,52,52,53,53,54,54,55,55,56,56,57,57,58,58,59,59,60,60,61,61,62,62],"right_children":[2,4,6,8,10,12,14,16,18,20,22,24,26,28,30,32,34,36,38,40,42,44,46,48,50,52,54,56,58,60,62,64,66,68,70,72,74,76,78,80,82,84,86,88,90,92,94,96,98,100,102,104,106,108,110,112,114,116,118,120,122,124,126,-1,-1,-1,-1,-1,-1,-1,-1,-1,-1,-1,-1,-1,-1,-1,-1,-1,-1,-1,-1,-1,-1,-1,-1,-1,-1,-1,-1,-1,-1,-1,-1,-1,-1,-1,-1,-1,-1,-1,-1,-1,-1,-1,-1,-1,-1,-1,-1,-1,-1,-1,-1,-1,-1,-1,-1,-1,-1,-1,-1,-1,-1,-1,-1],"split_conditions":[7.5221956E-1,5.8498666E-2,9.759081E-1,2.298E1,4.7809243E-1,9.145088E-1,9.960557E-1,-2.541E1,4.794E1,3.06E1,9.01E0,1.3E-1,5.71E0,3.15E0,1E-2,-5.641E1,-3.470691E-1,-1.8088022E-1,1.232E1,-1.837E1,6.89E0,-1.357E1,1.484E1,-9.69E0,3.06E1,0E0,1.769E1,-5.76E0,1.363E1,0E0,1.033E1,-9.9E-1,-4.8388797E-1,-2.69E0,-1E-2,-1.686E1,-1.686E1,-6.8E-1,-8.2207566E-1,-5.74E0,2.08E0,4.148E1,4.794E1,-2.424E1,-4E-1,6.0854435E-1,4.794E1,-1.024E1,2.3E-1,1.215E1,1.124E1,3.47E0,3.05E0,6.47E0,2.02E1,1E-2,1E-2,8.52E0,9.880882E-1,9.989523E-1,1.482E1,9.994459E-1,9.994459E-1,5.2942116E-2,2.0156805E-3,-1.6622648E-2,1.3966188E-2,-3.1038767E-2,-4.2511642E-2,3.7597944E-3,-2.9373407E-2,7.531859E-2,-7.743647E-3,1.3628222E-1,1.9028118E-2,7.821696E-2,2.6249995E-2,6.791773E-2,9.865111E-2,7.540443E-2,3.184377E-2,-1.2206204E-2,4.250677E-3,7.1093634E-2,2.6517166E-2,7.1860425E-2,1.300678E-1,9.4261885E-2,5.593763E-2,7.1056984E-2,1.111455E-2,3.672565E-2,5.7376176E-2,8.694224E-2,1.4437547E-1,8.232281E-2,2.2412646E-1,2.0641845E-2,4.6643585E-2,6.1978318E-2,9.0381294E-2,1.23395614E-1,1.5405749E-1,1.19561255E-1,6.0319412E-2,5.9111655E-2,9.445696E-2,1.5179378E-1,9.460089E-2,1.800965E-1,1.4764754E-1,1.3749813E-1,1.9197278E-1,8.226307E-2,1.1758285E-1,1.5577722E-1,1.20485544E-1,1.4787042E-1,1.7912115E-1,1.7511351E-1,2.15624E-1,1.3405116E-1,1.8407978E-1,1.7128865E-1,1.8764353E-1,1.8815735E-1,2.2366329E-1],"split_indices":[0,0,0,2,0,0,0,2,2,2,2,1,1,1,1,2,0,0,1,2,1,2,1,2,2,2,2,2,2,1,1,1,0,1,1,1,1,1,0,1,2,2,2,2,1,0,2,2,2,2,1,1,2,2,2,1,2,2,0,0,2,0,0,0,0,0,0,0,0,0,0,0,0,0,0,0,0,0,0,0,0,0,0,0,0,0,0,0,0,0,0,0,0,0,0,0,0,0,0,0,0,0,0,0,0,0,0,0,0,0,0,0,0,0,0,0,0,0,0,0,0,0,0,0,0,0,0],"split_type":[0,0,0,0,0,0,0,0,0,0,0,0,0,0,0,0,0,0,0,0,0,0,0,0,0,0,0,0,0,0,0,0,0,0,0,0,0,0,0,0,0,0,0,0,0,0,0,0,0,0,0,0,0,0,0,0,0,0,0,0,0,0,0,0,0,0,0,0,0,0,0,0,0,0,0,0,0,0,0,0,0,0,0,0,0,0,0,0,0,0,0,0,0,0,0,0,0,0,0,0,0,0,0,0,0,0,0,0,0,0,0,0,0,0,0,0,0,0,0,0,0,0,0,0,0,0,0],"sum_hessian":[1.2308157E5,1.0160423E5,2.1477344E4,7.0337164E4,3.1267066E4,1.3314185E4,8.163159E3,6.841581E4,1.9213461E3,1.95139E4,1.1753166E4,9.040503E3,4.273681E3,3.9151719E3,4.2479873E3,3.1742463E3,6.524157E4,1.525539E3,3.9580707E2,1.893516E4,5.787412E2,9.034608E3,2.718558E3,6.0965854E3,2.9439177E3,3.56604E3,7.0764105E2,2.6615112E3,1.2536608E3,1.1403932E3,3.107594E3,3.5851923E2,2.8157273E3,4.4392438E4,2.084913E4,1.1173854E3,4.0815356E2,2.6589468E2,1.299124E2,9.049219E2,1.8030238E4,3.3877692E2,2.3996431E2,7.6652545E2,8.268083E3,2.4593394E3,2.5921884E2,5.6966425E2,5.5269214E3,2.655542E3,2.8837573E2,6.616794E2,2.9043606E3,4.2774442E2,2.7989664E2,3.1941318E2,2.342098E3,7.356782E2,5.179826E2,1.6304077E2,9.7735236E2,2.5407563E3,5.6683765E2,2.5432942E2,1.04189804E2,1.9886023E3,8.2712494E2,7.5693003E3,3.6823137E4,1.2707042E3,1.9578426E4,1.8247192E1,1.0991382E3,2.3859558E0,4.057676E2,9.843163E1,1.6746306E2,2.9495972E1,1.0041642E2,2.7286246E2,6.3205945E2,1.2204672E4,5.825566E3,1.8977829E2,1.4899863E2,1.400781E2,9.988621E1,3.0058246E2,4.6594296E2,2.2569534E2,8.0423877E3,1.0768256E3,1.3825138E3,2.117553E2,4.746354E1,5.512864E2,1.8377876E1,2.8393047E3,2.6876165E3,1.8134922E3,8.4204987E2,1.363092E2,1.5206651E2,6.10163E2,5.1516346E1,1.2965354E3,1.6078252E3,1.4787677E2,2.7986765E2,3.6094475E1,2.4380215E2,2.5412236E2,6.529082E1,6.073048E2,1.7347931E3,4.904026E2,2.452756E2,2.2899155E2,2.8899103E2,8.535283E1,7.768794E1,8.4976135E2,1.2759102E2,2.103971E3,4.3678534E2,4.9093726E2,7.59004E1],"tree_param":{"num_deleted":"0","num_feature":"3","num_nodes":"127","size_leaf_vector":"1"}},{"base_weights":[-1.507182E-3,7.7838343E-1,-1.6633208E-1,1.1120266E0,6.135394E-1,1.1390553E-1,-2.687819E-1,1.229647E0,8.877032E-1,8.605528E-1,4.731506E-1,4.031741E-1,3.5067428E-2,4.5652766E-2,-2.8873986E-1,1.3244852E0,1.1388321E0,8.2670665E-1,1.4140314E0,1.1142113E0,7.789576E-1,9.608978E-1,4.3906632E-1,6.687086E-1,3.352263E-1,7.402453E-3,5.798246E-1,1.9585219E-1,-5.321906E-2,-3.1485298E-1,-7.246369E-2,1.3806959E0,1.2146121E0,1.4292465E0,1.1080867E0,1.0460656E0,7.242116E-1,1.2566183E0,1.5905526E0,1.1964712E0,9.51637E-1,9.1232705E-1,6.0658395E-1,7.5536853E-1,1.1398777E0,3.8224897E-1,7.5842357E-1,7.920485E-1,5.648695E-1,3.015367E-1,7.2425634E-1,-3.2650866E-2,2.2885069E-1,8.765216E-1,5.150045E-1,3.5313892E-1,4.6239976E-2,2.2655314E-1,-1.0492195E-1,-2.5813493E-1,-3.950611E-1,1.6276926E-1,-1.6947114E-1,1.547555E-1,1.3226055E-1,9.6251555E-2,1.3460551E-1,1.4770874E-1,8.4640115E-2,1.05735086E-1,1.2811208E-1,1.01788975E-1,1.7500438E-1,7.058162E-2,1.4956422E-1,1.3587469E-1,9.207856E-2,1.764173E-1,1.3962397E-1,1.5655419E-1,1.16795614E-1,1.00745045E-1,2.4550743E-2,1.0016703E-1,7.2422795E-2,9.066775E-2,5.751116E-2,1.14348985E-1,6.379085E-2,1.679739E-1,1.0604842E-1,5.3097595E-2,2.5616318E-2,6.852906E-2,1.0595959E-1,9.562164E-2,6.820294E-2,6.532421E-2,4.1142836E-2,4.4666853E-2,2.1618653E-2,9.126782E-2,4.433184E-2,2.4126712E-2,-8.254389E-3,3.3695776E-2,1.0807001E-2,8.0287494E-2,2.7517956E-1,4.5548696E-2,9.447779E-2,5.2560277E-2,2.172763E-2,-3.5709345E-3,2.9126141E-2,4.32744E-2,1.5813438E-2,-6.462147E-3,-3.285891E-2,-3.0487014E-2,-1.1041153E-2,-2.8258568E-2,-4.0928558E-2,1.2347308E-2,8.01915E-2,-2.2098204E-2,2.2740876E-2],"categories":[],"categories_nodes":[],"categories_segments":[],"categories_sizes":[],"default_left":[0,0,0,0,0,0,0,0,0,0,0,0,0,0,0,0,0,0,0,0,0,0,0,0,0,0,0,0,0,0,0,0,0,0,0,0,0,0,0,0,0,0,0,0,0,0,0,0,0,0,0,0,0,0,0,0,0,0,0,0,0,0,0,0,0,0,0,0,0,0,0,0,0,0,0,0,0,0,0,0,0,0,0,0,0,0,0,0,0,0,0,0,0,0,0,0,0,0,0,0,0,0,0,0,0,0,0,0,0,0,0,0,0,0,0,0,0,0,0,0,0,0,0,0,0,0,0],"id":6,"left_children":[1,3,5,7,9,11,13,15,17,19,21,23,25,27,29,31,33,35,37,39,41,43,45,47,49,51,53,55,57,59,61,63,65,67,69,71,73,75,77,79,81,83,85,87,89,91,93,95,97,99,101,103,105,107,109,111,113,115,117,119,121,123,125,-1,-1,-1,-1,-1,-1,-1,-1,-1,-1,-1,-1,-1,-1,-1,-1,-1,-1,-1,-1,-1,-1,-1,-1,-1,-1,-1,-1,-1,-1,-1,-1,-1,-1,-1,-1,-1,-1,-1,-1,-1,-1,-1,-1,-1,-1,-1,-1,-1,-1,-1,-1,-1,-1,-1,-1,-1,-1,-1,-1,-1,-1,-1,-1],"loss_changes":[1.6998092E4,1.2682012E3,3.1341384E3,2.0017578E2,5.351538E2,6.6647217E2,5.016704E2,4.156836E1,8.318359E1,1.14941895E2,1.6332104E2,1.1270502E2,3.4612256E2,7.087661E1,4.2450146E2,1.3395996E1,2.1293213E1,5.2235474E1,5.5444946E0,1.7042725E1,9.685083E1,2.2773499E1,1.6678918E2,1.5873108E1,6.512634E1,1.9388144E2,2.0895416E1,4.456523E1,4.166091E1,3.050161E2,1.8484929E2,1.3531494E1,2.634961E1,5.492859E0,1.902417E1,1.3062073E1,2.178656E1,3.8340454E0,1.7270203E0,7.6309814E0,1.7947235E1,3.9384155E1,1.6962341E1,1.3039719E1,1.2854279E1,1.464928E2,2.9884033E1,9.822968E0,9.159821E0,5.6761536E1,2.0591415E1,2.5300073E2,4.3679596E1,2.5079758E1,2.2932968E1,2.1522705E1,1.9529362E1,6.2699165E0,2.1884089E1,2.712256E2,4.432959E1,5.9309162E1,1.1729425E2,0E0,0E0,0E0,0E0,0E0,0E0,0E0,0E0,0E0,0E0,0E0,0E0,0E0,0E0,0E0,0E0,0E0,0E0,0E0,0E0,0E0,0E0,0E0,0E0,0E0,0E0,0E0,0E0,0E0,0E0,0E0,0E0,0E0,0E0,0E0,0E0,0E0,0E0,0E0,0E0,0E0,0E0,0E0,0E0,0E0,0E0,0E0,0E0,0E0,0E0,0E0,0E0,0E0,0E0,0E0,0E0,0E0,0E0,0E0,0E0,0E0,0E0,0E0,0E0],"parents":[2147483647,0,0,1,1,2,2,3,3,4,4,5,5,6,6,7,7,8,8,9,9,10,10,11,11,12,12,13,13,14,14,15,15,16,16,17,17,18,18,19,19,20,20,21,21,22,22,23,23,24,24,25,25,26,26,27,27,28,28,29,29,30,30,31,31,32,32,33,33,34,34,35,35,36,36,37,37,38,38,39,39,40,40,41,41,42,42,43,43,44,44,45,45,46,46,47,47,48,48,49,49,50,50,51,51,52,52,53,53,54,54,55,55,56,56,57,57,58,58,59,59,60,60,61,61,62,62],"right_children":[2,4,6,8,10,12,14,16,18,20,22,24,26,28,30,32,34,36,38,40,42,44,46,48,50,52,54,56,58,60,62,64,66,68,70,72,74,76,78,80,82,84,86,88,90,92,94,96,98,100,102,104,106,108,110,112,114,116,118,120,122,124,126,-1,-1,-1,-1,-1,-1,-1,-1,-1,-1,-1,-1,-1,-1,-1,-1,-1,-1,-1,-1,-1,-1,-1,-1,-1,-1,-1,-1,-1,-1,-1,-1,-1,-1,-1,-1,-1,-1,-1,-1,-1,-1,-1,-1,-1,-1,-1,-1,-1,-1,-1,-1,-1,-1,-1,-1,-1,-1,-1,-1,-1,-1,-1,-1],"split_conditions":[-8.8785416E-1,-9.9622166E-1,-4.3638948E-1,-1E-2,-9E-2,0E0,-1.616E1,-3.99E0,4.77E0,-1.837E1,-1.837E1,-1.911E1,1.3E-1,-2.851E1,1.658E1,-7.42E0,-9.9949837E-1,-6.7E0,-9.987841E-1,-9.4963837E-1,-9.5911855E-1,-2.688E1,2E-2,-3.04E1,1.363E1,1E-2,-5.8E-1,0E0,-2.7572396E-1,4.1244003E-1,2.0394677E-1,-9.992161E-1,-4.89E0,9.44E0,-1.01E0,-6.99E0,1.3E-1,-9.990836E-1,1.31E0,-5.641E1,-1.53E0,-2.38E0,-1.2E1,-4.024E1,-9.920471E-1,-9.637281E-1,1.71E0,-7.695645E-1,-6.7230636E-1,-8.036969E-1,-3.66E0,-9.22E0,-6.626171E-1,-1.2E0,2.063E1,7.6758265E-2,1.31E0,-6.63E0,8.4636647E-1,1E-2,-4.35E0,6.126E1,4.794E1,1.547555E-1,1.3226055E-1,9.6251555E-2,1.3460551E-1,1.4770874E-1,8.4640115E-2,1.05735086E-1,1.2811208E-1,1.01788975E-1,1.7500438E-1,7.058162E-2,1.4956422E-1,1.3587469E-1,9.207856E-2,1.764173E-1,1.3962397E-1,1.5655419E-1,1.16795614E-1,1.00745045E-1,2.4550743E-2,1.0016703E-1,7.2422795E-2,9.066775E-2,5.751116E-2,1.14348985E-1,6.379085E-2,1.679739E-1,1.0604842E-1,5.3097595E-2,2.5616318E-2,6.852906E-2,1.0595959E-1,9.562164E-2,6.820294E-2,6.532421E-2,4.1142836E-2,4.4666853E-2,2.1618653E-2,9.126782E-2,4.433184E-2,2.4126712E-2,-8.254389E-3,3.3695776E-2,1.0807001E-2,8.0287494E-2,2.7517956E-1,4.5548696E-2,9.447779E-2,5.2560277E-2,2.172763E-2,-3.5709345E-3,2.9126141E-2,4.32744E-2,1.5813438E-2,-6.462147E-3,-3.285891E-2,-3.0487014E-2,-1.1041153E-2,-2.8258568E-2,-4.0928558E-2,1.2347308E-2,8.01915E-2,-2.2098204E-2,2.2740876E-2],"split_indices":[0,0,0,1,1,1,2,1,2,2,2,2,1,2,2,2,0,2,0,0,0,2,2,2,2,2,2,1,0,0,0,0,2,2,2,2,1,0,1,2,1,1,1,2,0,0,1,0,0,0,1,2,0,2,1,0,1,1,0,2,2,2,2,0,0,0,0,0,0,0,0,0,0,0,0,0,0,0,0,0,0,0,0,0,0,0,0,0,0,0,0,0,0,0,0,0,0,0,0,0,0,0,0,0,0,0,0,0,0,0,0,0,0,0,0,0,0,0,0,0,0,0,0,0,0,0,0],"split_type":[0,0,0,0,0,0,0,0,0,0,0,0,0,0,0,0,0,0,0,0,0,0,0,0,0,0,0,0,0,0,0,0,0,0,0,0,0,0,0,0,0,0,0,0,0,0,0,0,0,0,0,0,0,0,0,0,0,0,0,0,0,0,0,0,0,0,0,0,0,0,0,0,0,0,0,0,0,0,0,0,0,0,0,0,0,0,0,0,0,0,0,0,0,0,0,0,0,0,0,0,0,0,0,0,0,0,0,0,0,0,0,0,0,0,0,0,0,0,0,0,0,0,0,0,0,0,0],"sum_hessian":[1.3223217E5,2.3069953E4,1.0916223E5,7.6270703E3,1.5442882E4,2.9223951E4,7.993827E4,5.0006016E3,2.6264685E3,5.594411E3,9.848471E3,6.258068E3,2.2965885E4,4.770976E3,7.51673E4,2.4394714E3,2.5611304E3,2.3560007E3,2.7046783E2,1.3585065E3,4.235905E3,6.4149347E2,9.206978E3,1.2732946E3,4.9847734E3,2.1856914E4,1.1089691E3,1.8935068E3,2.877469E3,6.706895E4,8.098342E3,1.6061859E3,8.3328546E2,2.4082898E2,2.3203015E3,7.473417E2,1.608659E3,1.4726381E2,1.23204025E2,8.978498E2,4.6065665E2,2.385723E3,1.8501818E3,3.0102994E2,3.404635E2,7.818222E3,1.3887549E3,5.789688E2,6.943257E2,4.589135E3,3.956388E2,1.8509887E4,3.3470286E3,1.9659308E2,9.1237604E2,9.2241516E2,9.7109174E2,4.4829495E2,2.429174E3,3.928988E4,2.7779072E4,2.3643535E3,5.7339883E3,4.081562E2,1.1980297E3,2.8842783E2,5.448576E2,2.2114299E2,1.9685995E1,1.7997136E3,5.205878E2,7.2093317E2,2.6408495E1,1.5730631E3,3.5595985E1,1.10587616E2,3.6676205E1,6.079981E1,6.240422E1,6.0528362E1,8.373214E2,4.2651743E2,3.413923E1,1.6145298E3,7.711931E2,1.7298044E2,1.6772013E3,6.790786E1,2.3312207E2,4.10659E1,2.993976E2,3.5855752E3,4.232647E3,1.1200513E3,2.687037E2,2.2922836E2,3.4974045E2,4.3851248E2,2.5581323E2,1.6978431E3,2.8912915E3,2.354659E2,1.601729E2,2.8514248E3,1.5658461E4,1.7652333E3,1.5817954E3,1.905383E2,6.054771E0,8.032034E2,1.09172615E2,4.0519385E2,5.172213E2,7.283453E2,2.4274646E2,1.1036563E2,3.3792932E2,2.0593992E3,3.6977487E2,2.9846344E4,9.443536E3,3.1210728E3,2.4658E4,2.2285315E3,1.3582213E2,5.075663E3,6.583251E2],"tree_param":{"num_deleted":"0","num_feature":"3","num_nodes":"127","size_leaf_vector":"1"}},{"base_weights":[2.049443E-3,5.639661E-2,-5.136543E-1,-3.571819E-1,1.3966048E-1,-3.7671968E-1,-7.362448E-1,-6.1472833E-1,-2.0691006E-1,1.8948498E-1,-2.246812E-1,-2.6081508E-1,-5.539016E-1,-6.077053E-1,-8.068548E-1,-7.0677614E-1,-4.618949E-1,-4.917045E-1,-1.24549694E-1,-1.1580593E-1,2.2663455E-1,-1.7646047E-1,-7.239723E-1,-6.9152033E-1,-2.2992042E-1,-5.1385874E-1,-9.65405E-1,-9.5709443E-1,-5.65835E-1,-7.7528393E-1,-1.0057036E0,-1.0986121E0,-6.803437E-1,-5.603779E-1,-2.8520504E-1,-9.091342E-1,-4.3960103E-1,-8.071875E-2,-5.510547E-1,-2.5843525E-1,-1.751226E-2,2.68808E-1,9.114808E-2,-7.874493E-1,-1.5309152E-1,-6.032115E-1,-1.0061046E0,-1.1803392E-1,-6.3868195E-1,-1.9721964E-1,-4.9752071E-1,-4.8979437E-1,-7.910669E-1,-8.718081E-1,-1.1163825E0,-8.9759225E-1,-1.1454846E-1,-4.6305978E-1,-6.565883E-1,-7.4562246E-1,-8.836411E-1,-9.543447E-1,-1.0805275E-1,-1.1966272E-1,-1.018584E-1,-7.5591E-2,-5.5388577E-2,-5.2861135E-2,-8.031884E-2,-2.3606269E-2,-5.9954684E-2,-9.521673E-2,-6.0923226E-2,-5.4557204E-2,-3.5478037E-2,-8.0433175E-2,-7.052881E-3,-3.85389E-2,-7.896602E-2,-3.447447E-2,-1.787517E-2,-4.191586E-2,1.9889479E-3,1.1701642E-2,3.4136258E-2,1.17880115E-2,-5.0264276E-3,-9.732436E-2,-6.2660806E-2,-4.022398E-2,-1.2430027E-2,-4.8476856E-2,-7.702085E-2,-7.947471E-2,-1.0785373E-1,-5.8518447E-2,-9.8191865E-2,-4.075191E-2,-1.5490675E-2,-1.7333006E-2,-5.704208E-2,-3.651614E-2,-5.4211564E-2,-1.1458687E-1,-6.7472406E-2,-6.836947E-2,-9.963303E-2,-1.134717E-1,-6.599424E-2,-7.982592E-2,-1.0221638E-1,-3.8143583E-2,-7.5992E-2,-6.25E-2,-8.1860445E-2,-8.932428E-2,-7.113057E-2,-6.520539E-2,-9.0248406E-2,-1.1601E-1,-9.167079E-2],"categories":[],"categories_nodes":[],"categories_segments":[],"categories_sizes":[],"default_left":[0,0,0,0,0,0,0,0,0,0,0,0,0,0,0,0,0,0,0,0,0,0,0,0,0,0,0,0,0,0,0,0,0,0,0,0,0,0,0,0,0,0,0,0,0,0,0,0,0,0,0,0,0,0,0,0,0,0,0,0,0,0,0,0,0,0,0,0,0,0,0,0,0,0,0,0,0,0,0,0,0,0,0,0,0,0,0,0,0,0,0,0,0,0,0,0,0,0,0,0,0,0,0,0,0,0,0,0,0,0,0,0,0,0,0,0,0,0,0,0,0],"id":7,"left_children":[1,3,5,7,9,11,13,15,17,19,21,23,25,27,29,31,33,35,37,39,41,43,45,47,49,51,53,55,57,59,61,63,65,67,69,71,73,75,77,79,81,83,85,87,89,91,93,-1,95,97,99,101,103,105,107,109,-1,111,113,115,117,119,-1,-1,-1,-1,-1,-1,-1,-1,-1,-1,-1,-1,-1,-1,-1,-1,-1,-1,-1,-1,-1,-1,-1,-1,-1,-1,-1,-1,-1,-1,-1,-1,-1,-1,-1,-1,-1,-1,-1,-1,-1,-1,-1,-1,-1,-1,-1,-1,-1,-1,-1,-1,-1,-1,-1,-1,-1,-1,-1],"loss_changes":[6.061774E3,6.737936E3,6.2822363E2,1.2689375E3,2.9567087E3,2.6206787E2,7.078027E1,1.6964502E2,4.8569794E2,1.6250273E3,4.716272E2,1.0257788E2,8.269177E1,4.024768E1,3.1019775E1,7.733301E1,7.8917175E1,1.00632324E2,3.002827E2,2.1792084E2,7.2985596E2,2.5502838E2,5.81781E1,1.2580124E1,6.295581E1,3.0317871E1,5.3370667E0,2.300354E0,2.29422E1,1.3404785E1,1.6229248E0,2.505249E0,6.709302E1,2.2074585E1,2.5014084E1,6.060425E0,3.6944397E1,1.0737152E2,5.8868988E1,4.355414E1,1.3826631E2,1.0727944E3,1.1463817E2,1.9055298E1,1.23422485E2,2.3574463E1,7.0372314E0,0E0,8.020264E0,5.7087433E1,1.8429367E1,2.7437134E1,1.4336319E1,5.8829803E0,6.51474E-1,2.0335693E0,0E0,2.8112045E1,6.249878E0,1.6799683E1,3.491516E0,2.1743774E0,0E0,0E0,0E0,0E0,0E0,0E0,0E0,0E0,0E0,0E0,0E0,0E0,0E0,0E0,0E0,0E0,0E0,0E0,0E0,0E0,0E0,0E0,0E0,0E0,0E0,0E0,0E0,0E0,0E0,0E0,0E0,0E0,0E0,0E0,0E0,0E0,0E0,0E0,0E0,0E0,0E0,0E0,0E0,0E0,0E0,0E0,0E0,0E0,0E0,0E0,0E0,0E0,0E0,0E0,0E0,0E0,0E0,0E0,0E0],"parents":[2147483647,0,0,1,1,2,2,3,3,4,4,5,5,6,6,7,7,8,8,9,9,10,10,11,11,12,12,13,13,14,14,15,15,16,16,17,17,18,18,19,19,20,20,21,21,22,22,23,23,24,24,25,25,26,26,27,27,28,28,29,29,30,30,31,31,32,32,33,33,34,34,35,35,36,36,37,37,38,38,39,39,40,40,41,41,42,42,43,43,44,44,45,45,46,46,48,48,49,49,50,50,51,51,52,52,53,53,54,54,55,55,57,57,58,58,59,59,60,60,61,61],"right_children":[2,4,6,8,10,12,14,16,18,20,22,24,26,28,30,32,34,36,38,40,42,44,46,48,50,52,54,56,58,60,62,64,66,68,70,72,74,76,78,80,82,84,86,88,90,92,94,-1,96,98,100,102,104,106,108,110,-1,112,114,116,118,120,-1,-1,-1,-1,-1,-1,-1,-1,-1,-1,-1,-1,-1,-1,-1,-1,-1,-1,-1,-1,-1,-1,-1,-1,-1,-1,-1,-1,-1,-1,-1,-1,-1,-1,-1,-1,-1,-1,-1,-1,-1,-1,-1,-1,-1,-1,-1,-1,-1,-1,-1,-1,-1,-1,-1,-1,-1,-1,-1],"split_conditions":[9.145088E-1,0E0,9.9427485E-1,-9.5911855E-1,1E-2,1.3E-1,1.3E-1,-2.38E0,-1.999E1,-8.987592E-1,3.708E1,0E0,3.342E1,-1E-2,1.339E1,-3.63E1,-9.9622166E-1,-5.641E1,1.215E1,-9.831501E-1,2.3E-1,-9.1646844E-1,6.126E1,-4.024E1,1.536E1,1.484E1,1.73E1,-5.8E-1,9.980851E-1,1.482E1,2.542E1,-1.461E1,-9.94992E-1,0E0,0E0,-3.66E0,-3.04E1,-2.019E1,2.542E1,-3.36E0,-1.498E1,-1E-2,1.769E1,-9.935084E-1,-7.19E0,1.339E1,9.6E0,-1.1803392E-1,1.256E1,0E0,9.408293E-1,9.56949E-1,1.363E1,4.148E1,9.925283E-1,9.989523E-1,-1.1454846E-1,1.074E1,9.994459E-1,-5.8E-1,9.960557E-1,1.38E0,-1.0805275E-1,-1.1966272E-1,-1.018584E-1,-7.5591E-2,-5.5388577E-2,-5.2861135E-2,-8.031884E-2,-2.3606269E-2,-5.9954684E-2,-9.521673E-2,-6.0923226E-2,-5.4557204E-2,-3.5478037E-2,-8.0433175E-2,-7.052881E-3,-3.85389E-2,-7.896602E-2,-3.447447E-2,-1.787517E-2,-4.191586E-2,1.9889479E-3,1.1701642E-2,3.4136258E-2,1.17880115E-2,-5.0264276E-3,-9.732436E-2,-6.2660806E-2,-4.022398E-2,-1.2430027E-2,-4.8476856E-2,-7.702085E-2,-7.947471E-2,-1.0785373E-1,-5.8518447E-2,-9.8191865E-2,-4.075191E-2,-1.5490675E-2,-1.7333006E-2,-5.704208E-2,-3.651614E-2,-5.4211564E-2,-1.1458687E-1,-6.7472406E-2,-6.836947E-2,-9.963303E-2,-1.134717E-1,-6.599424E-2,-7.982592E-2,-1.0221638E-1,-3.8143583E-2,-7.5992E-2,-6.25E-2,-8.1860445E-2,-8.932428E-2,-7.113057E-2,-6.520539E-2,-9.0248406E-2,-1.1601E-1,-9.167079E-2],"split_indices":[0,1,0,0,1,1,1,1,2,0,2,1,2,1,1,2,0,2,2,0,2,0,2,2,2,1,1,2,0,2,2,1,0,2,2,1,2,1,2,2,2,2,2,0,2,1,1,0,2,2,0,0,2,2,0,0,0,2,0,2,0,2,0,0,0,0,0,0,0,0,0,0,0,0,0,0,0,0,0,0,0,0,0,0,0,0,0,0,0,0,0,0,0,0,0,0,0,0,0,0,0,0,0,0,0,0,0,0,0,0,0,0,0,0,0,0,0,0,0,0,0],"split_type":[0,0,0,0,0,0,0,0,0,0,0,0,0,0,0,0,0,0,0,0,0,0,0,0,0,0,0,0,0,0,0,0,0,0,0,0,0,0,0,0,0,0,0,0,0,0,0,0,0,0,0,0,0,0,0,0,0,0,0,0,0,0,0,0,0,0,0,0,0,0,0,0,0,0,0,0,0,0,0,0,0,0,0,0,0,0,0,0,0,0,0,0,0,0,0,0,0,0,0,0,0,0,0,0,0,0,0,0,0,0,0,0,0,0,0,0,0,0,0,0,0],"sum_hessian":[2.1628106E5,1.9566219E5,2.0618867E4,3.2789707E4,1.6287248E5,1.2767298E4,7.8515703E3,1.208113E4,2.0708578E4,1.4327922E5,1.9593262E4,7.71981E3,5.047488E3,2.7872415E3,5.064329E3,7.5377197E3,4.54341E3,4.6442446E3,1.6064333E4,1.5543382E4,1.2773584E5,1.786887E4,1.7243928E3,5.152521E2,7.204558E3,4.6019287E3,4.4555917E2,2.9593515E2,2.4913064E3,4.37467E3,6.89659E2,4.7378333E2,7.063936E3,2.9159517E3,1.6274585E3,5.135403E2,4.1307046E3,1.4568364E4,1.4959684E3,6.3408477E3,9.202535E3,9.7412766E4,3.0323072E4,6.570623E2,1.7211807E4,1.2097311E3,5.146618E2,4.8181E1,4.6707108E2,6.4215776E3,7.829801E2,4.236892E3,3.6503632E2,2.7922873E2,1.6633041E2,2.2928201E2,6.665312E1,1.1711353E3,1.320171E3,3.4407004E3,9.339694E2,4.171106E2,2.7254837E2,2.0668791E2,2.6709543E2,4.418585E3,2.6453516E3,2.5814067E3,3.3454495E2,1.4089435E3,2.1851506E2,4.4719684E2,6.634343E1,1.8339814E3,2.296723E3,2.0122101E2,1.4367144E4,8.844812E2,6.114871E2,3.0422742E3,3.2985732E3,7.830783E2,8.419456E3,3.1504576E4,6.5908195E4,2.5502371E4,4.8207017E3,3.0253772E2,3.545246E2,1.781596E3,1.543021E4,7.1003766E2,4.9969336E2,1.3441457E2,3.8024722E2,4.0642914E2,6.064191E1,1.0741769E3,5.347401E3,1.4436383E2,6.386163E2,1.2551095E3,2.9817827E3,8.795567E1,2.7708066E2,1.1380146E2,1.6542728E2,1.5847858E2,7.851847E0,1.3168483E2,9.759718E1,9.2036017E2,2.507751E2,1.1088381E3,2.1133292E2,6.4426117E2,2.7964395E3,7.295296E1,8.610165E2,5.988787E1,3.5722272E2],"tree_param":{"num_deleted":"0","num_feature":"3","num_nodes":"121","size_leaf_vector":"1"}},{"base_weights":[-1.9850612E-3,-2.4807036E-1,6.5626246E-1,-3.334705E-1,-2.7131945E-2,3.894374E-1,1.1115687E0,-3.496579E-1,1.1105614E-2,-4.827331E-2,5.462639E-1,2.925688E-1,6.126237E-1,9.368081E-1,1.3199296E0,-9.3011E-2,-3.6958632E-1,-6.6442095E-2,5.064623E-1,3.1882006E-1,-7.45191E-2,3.9703572E-1,7.480825E-1,7.6730144E-1,2.5921726E-1,5.099486E-1,8.067127E-1,8.2108337E-1,1.0954322E0,1.2051679E0,1.3853474E0,1.5480264E-1,-1.65752E-1,-4.1526577E-1,-3.0348063E-1,-1.2069434E-1,1.5968965E-1,3.8190126E-1,7.42611E-1,5.637993E-1,2.2336715E-1,-1.6211846E-1,-4.323104E-3,1.0383642E0,3.48902E-1,5.383028E-1,9.641009E-1,1.0345719E0,6.917961E-1,1.8168262E-1,3.8288525E-1,4.1715613E-1,7.213076E-1,7.121697E-1,9.7439456E-1,7.7702564E-1,1.1542245E0,1.064304E0,1.3971686E0,1.1329657E0,1.4414939E0,1.6464913E0,1.3656698E0,2.9142266E-2,-4.742517E-3,-2.3221392E-2,2.4307452E-3,-3.3602327E-2,-4.331757E-2,-1.735003E-2,-3.499179E-2,1.3364966E-2,-1.7680205E-2,2.3387175E-2,-2.6516085E-2,7.094436E-2,2.0419663E-2,7.683034E-2,1.1160706E-2,2.2274626E-2,6.691887E-2,8.9885825E-3,3.270988E-2,-1.9845404E-2,-7.923788E-3,-4.0525827E-3,2.2425363E-2,7.18174E-2,1.7074077E-1,4.8509497E-2,1.2463852E-2,8.126308E-2,3.7272025E-2,6.422981E-2,1.10227905E-1,1.2988895E-1,9.2226155E-2,6.4485684E-2,1.21856056E-1,5.8481235E-2,1.6373804E-2,3.0460348E-2,5.535781E-2,6.264243E-2,3.455944E-2,9.72667E-2,6.337728E-2,3.3747327E-2,7.748166E-2,8.100941E-2,1.08510636E-1,1.05394855E-1,6.95972E-2,1.2006567E-1,5.7192087E-2,9.345054E-2,1.1388172E-1,1.3277827E-1,1.5578847E-1,1.0124614E-1,1.2420821E-1,1.4706938E-1,1.2317441E-1,1.5904598E-1,2.0049377E-1,1.2936434E-1,1.45665E-1],"categories":[],"categories_nodes":[],"categories_segments":[],"categories_sizes":[],"default_left":[0,0,0,0,0,0,0,0,0,0,0,0,0,0,0,0,0,0,0,0,0,0,0,0,0,0,0,0,0,0,0,0,0,0,0,0,0,0,0,0,0,0,0,0,0,0,0,0,0,0,0,0,0,0,0,0,0,0,0,0,0,0,0,0,0,0,0,0,0,0,0,0,0,0,0,0,0,0,0,0,0,0,0,0,0,0,0,0,0,0,0,0,0,0,0,0,0,0,0,0,0,0,0,0,0,0,0,0,0,0,0,0,0,0,0,0,0,0,0,0,0,0,0,0,0,0,0],"id":8,"left_children":[1,3,5,7,9,11,13,15,17,19,21,23,25,27,29,31,33,35,37,39,41,43,45,47,49,51,53,55,57,59,61,63,65,67,69,71,73,75,77,79,81,83,85,87,89,91,93,95,97,99,101,103,105,107,109,111,113,115,117,119,121,123,125,-1,-1,-1,-1,-1,-1,-1,-1,-1,-1,-1,-1,-1,-1,-1,-1,-1,-1,-1,-1,-1,-1,-1,-1,-1,-1,-1,-1,-1,-1,-1,-1,-1,-1,-1,-1,-1,-1,-1,-1,-1,-1,-1,-1,-1,-1,-1,-1,-1,-1,-1,-1,-1,-1,-1,-1,-1,-1,-1,-1,-1,-1,-1,-1],"loss_changes":[1.9907457E4,1.687832E3,4.0623955E3,3.598628E2,3.023452E2,4.5571948E2,4.4869922E2,3.151333E2,1.112727E2,2.317664E2,2.6413605E1,2.3265417E2,1.2675708E2,1.2252051E2,4.0625E1,8.008795E1,1.7254297E2,3.0747585E1,1.1249695E1,3.740869E1,1.3804031E2,1.5443237E1,1.6514633E1,1.8755737E1,1.317049E2,8.1605835E1,3.428003E1,5.621875E1,2.5122314E1,3.340088E1,1.6157227E1,2.7873676E1,4.338372E1,4.784131E1,1.4099927E2,2.8859587E1,1.5349802E1,1.4915966E1,2.0921478E0,1.6004074E1,1.5987053E1,3.0058655E1,1.03145164E2,6.3227654E0,1.4532166E1,8.462078E0,7.4703674E0,5.051468E0,1.789093E1,6.1023438E1,7.058392E1,4.328018E1,2.738733E1,3.294043E1,1.3539856E1,7.647754E1,1.1546753E1,2.3814697E1,8.5025024E-1,1.9483154E1,1.1089478E0,1.7540894E0,1.997998E1,0E0,0E0,0E0,0E0,0E0,0E0,0E0,0E0,0E0,0E0,0E0,0E0,0E0,0E0,0E0,0E0,0E0,0E0,0E0,0E0,0E0,0E0,0E0,0E0,0E0,0E0,0E0,0E0,0E0,0E0,0E0,0E0,0E0,0E0,0E0,0E0,0E0,0E0,0E0,0E0,0E0,0E0,0E0,0E0,0E0,0E0,0E0,0E0,0E0,0E0,0E0,0E0,0E0,0E0,0E0,0E0,0E0,0E0,0E0,0E0,0E0,0E0,0E0,0E0],"parents":[2147483647,0,0,1,1,2,2,3,3,4,4,5,5,6,6,7,7,8,8,9,9,10,10,11,11,12,12,13,13,14,14,15,15,16,16,17,17,18,18,19,19,20,20,21,21,22,22,23,23,24,24,25,25,26,26,27,27,28,28,29,29,30,30,31,31,32,32,33,33,34,34,35,35,36,36,37,37,38,38,39,39,40,40,41,41,42,42,43,43,44,44,45,45,46,46,47,47,48,48,49,49,50,50,51,51,52,52,53,53,54,54,55,55,56,56,57,57,58,58,59,59,60,60,61,61,62,62],"right_children":[2,4,6,8,10,12,14,16,18,20,22,24,26,28,30,32,34,36,38,40,42,44,46,48,50,52,54,56,58,60,62,64,66,68,70,72,74,76,78,80,82,84,86,88,90,92,94,96,98,100,102,104,106,108,110,112,114,116,118,120,122,124,126,-1,-1,-1,-1,-1,-1,-1,-1,-1,-1,-1,-1,-1,-1,-1,-1,-1,-1,-1,-1,-1,-1,-1,-1,-1,-1,-1,-1,-1,-1,-1,-1,-1,-1,-1,-1,-1,-1,-1,-1,-1,-1,-1,-1,-1,-1,-1,-1,-1,-1,-1,-1,-1,-1,-1,-1,-1,-1,-1,-1,-1,-1,-1,-1],"split_conditions":[5.239891E-1,-1.0623686E-2,9.408293E-1,1.71E1,2.861E1,1E-2,9.9427485E-1,-2.103E1,4.794E1,-1.551E1,6.89E0,-9E-2,1.363E1,1.3E-1,9.980851E-1,-4.024E1,-5.1359755E-1,-1.8088022E-1,1.232E1,-6.63E0,2.146305E-1,-4.68E0,4.148E1,-1.461E1,7.913734E-1,8.6271775E-1,2.861E1,1.536E1,3.342E1,1.482E1,-1.08E1,-3.66E0,-4.8388797E-1,-2.69E0,-3.8E-1,-2.06E0,1.232E1,-7.223664E-1,-4.3782476E-2,9.668776E-2,1.9425319E-1,1E-2,1E-2,3.5700408E-1,4.148E1,1.232E1,1.339E1,-2.688E1,-1.26E0,-1.357E1,5.01E0,1E-2,1E-2,6.2042546E-1,7.5221956E-1,0E0,9.925283E-1,9.759081E-1,9.880882E-1,1.3E-1,2.063E1,-1.282E1,3.15E0,2.9142266E-2,-4.742517E-3,-2.3221392E-2,2.4307452E-3,-3.3602327E-2,-4.331757E-2,-1.735003E-2,-3.499179E-2,1.3364966E-2,-1.7680205E-2,2.3387175E-2,-2.6516085E-2,7.094436E-2,2.0419663E-2,7.683034E-2,1.1160706E-2,2.2274626E-2,6.691887E-2,8.9885825E-3,3.270988E-2,-1.9845404E-2,-7.923788E-3,-4.0525827E-3,2.2425363E-2,7.18174E-2,1.7074077E-1,4.8509497E-2,1.2463852E-2,8.126308E-2,3.7272025E-2,6.422981E-2,1.10227905E-1,1.2988895E-1,9.2226155E-2,6.4485684E-2,1.21856056E-1,5.8481235E-2,1.6373804E-2,3.0460348E-2,5.535781E-2,6.264243E-2,3.455944E-2,9.72667E-2,6.337728E-2,3.3747327E-2,7.748166E-2,8.100941E-2,1.08510636E-1,1.05394855E-1,6.95972E-2,1.2006567E-1,5.7192087E-2,9.345054E-2,1.1388172E-1,1.3277827E-1,1.5578847E-1,1.0124614E-1,1.2420821E-1,1.4706938E-1,1.2317441E-1,1.5904598E-1,2.0049377E-1,1.2936434E-1,1.45665E-1],"split_indices":[0,0,0,2,2,1,0,2,2,2,1,1,2,1,0,2,0,0,1,1,0,1,2,1,0,0,2,2,2,2,2,1,0,1,2,1,1,0,0,0,0,2,1,0,2,1,1,1,1,2,2,2,2,0,0,2,0,0,0,1,1,2,1,0,0,0,0,0,0,0,0,0,0,0,0,0,0,0,0,0,0,0,0,0,0,0,0,0,0,0,0,0,0,0,0,0,0,0,0,0,0,0,0,0,0,0,0,0,0,0,0,0,0,0,0,0,0,0,0,0,0,0,0,0,0,0,0],"split_type":[0,0,0,0,0,0,0,0,0,0,0,0,0,0,0,0,0,0,0,0,0,0,0,0,0,0,0,0,0,0,0,0,0,0,0,0,0,0,0,0,0,0,0,0,0,0,0,0,0,0,0,0,0,0,0,0,0,0,0,0,0,0,0,0,0,0,0,0,0,0,0,0,0,0,0,0,0,0,0,0,0,0,0,0,0,0,0,0,0,0,0,0,0,0,0,0,0,0,0,0,0,0,0,0,0,0,0,0,0,0,0,0,0,0,0,0,0,0,0,0,0,0,0,0,0,0,0],"sum_hessian":[1.2289489E5,8.945342E4,3.3441465E4,6.4515496E4,2.4937926E4,2.108613E4,1.2355337E4,6.1620684E4,2.8948115E3,2.4052033E4,8.8589355E2,1.4705761E4,6.380369E3,6.7224487E3,5.6328877E3,4.440439E3,5.7180246E4,2.5037217E3,3.9108987E2,1.6041422E3,2.244789E4,5.110108E2,3.7488272E2,9.638678E2,1.3741893E4,4.1752476E3,2.2051216E3,3.8903823E3,2.8320664E3,2.0521824E3,3.5807056E3,1.0073786E3,3.4330603E3,3.3811203E4,2.3369043E4,2.019646E3,4.840757E2,2.5775137E2,1.333385E2,4.4840552E2,1.1557367E3,9.985465E3,1.2462425E4,3.423918E1,4.767716E2,1.9195921E2,1.8292352E2,2.095191E2,7.5434863E2,8.44789E3,5.2940034E3,2.9035027E3,1.271745E3,1.4134388E3,7.916828E2,3.4389197E3,4.5146268E2,2.5713271E3,2.6073938E2,1.5763662E3,4.7581613E2,2.451108E2,3.3355947E3,6.0095044E2,4.0642813E2,2.543427E3,8.896333E2,6.236697E3,2.7574506E4,6.152528E3,1.7216516E4,3.6475943E2,1.6548866E3,4.124997E2,7.157602E1,8.960345E1,1.6814792E2,1.2791273E2,5.4257793E0,1.06587746E2,3.4181778E2,5.0621213E2,6.4952454E2,6.9410513E3,3.0444136E3,1.0759175E4,1.7032501E3,2.4559132E1,9.680051E0,2.9590714E2,1.8086449E2,7.078267E1,1.2117654E2,5.664694E1,1.2627658E2,5.932799E1,1.5019112E2,6.946716E2,5.9677094E1,3.5867047E2,8.0892188E3,3.6313896E3,1.6626139E3,7.3790155E2,2.165601E3,3.258738E2,9.4587115E2,2.0338165E2,1.2100573E3,3.220562E2,4.6962656E2,7.7592883E2,2.662991E3,4.1713864E2,3.4324047E1,9.4270966E2,1.6286174E3,1.8858376E2,7.2155624E1,7.53978E2,8.2238824E2,4.1239398E2,6.3422127E1,2.1667747E2,2.843333E1,1.8702144E3,1.4653804E3],"tree_param":{"num_deleted":"0","num_feature":"3","num_nodes":"127","size_leaf_vector":"1"}},{"base_weights":[-1.8190864E-3,5.2189666E-1,-2.0554295E-1,7.802048E-1,2.860499E-1,-1.9841887E-2,-2.8179178E-1,9.429331E-1,6.07194E-1,5.984102E-1,2.1652816E-1,-7.940803E-2,2.0586461E-1,2.3113783E-2,-2.9829168E-1,1.0234601E0,8.258764E-1,7.9588264E-1,5.213605E-1,8.011715E-1,5.363156E-1,1.5162048E-1,4.7447887E-1,1.8140888E-1,-1.7062263E-1,1.5415105E-1,4.8888698E-1,1.7529269E-1,-8.4171176E-2,-3.1716824E-1,-1.9641044E-2,1.0957797E0,9.4935155E-1,1.0433478E0,7.6575655E-1,7.465176E-1,1.1634848E0,4.798845E-1,7.840406E-1,9.2546546E-1,5.77613E-1,5.2354115E-1,1.1647373E0,2.6277784E-1,3.110041E-2,4.3935716E-1,7.3838633E-1,3.9631847E-1,8.433129E-2,-9.2949465E-2,-2.4676634E-1,1.6588281E0,1.437726E-1,4.3018496E-1,9.690937E-1,3.477642E-1,9.766426E-2,-4.1576445E-2,-2.946949E-1,-2.6010433E-1,-3.767227E-1,-1.0118911E-1,2.673806E-1,1.3013026E-1,1.07472554E-1,1.1960616E-1,9.226421E-2,1.1613586E-1,9.830164E-2,9.469905E-2,7.23507E-2,9.033912E-2,6.73842E-2,1.0385036E-1,1.3457291E-1,6.0325693E-2,3.6485855E-2,9.293892E-2,6.740876E-2,8.1552394E-2,1.14267014E-1,5.1150687E-2,9.475023E-2,6.1619427E-2,4.4317536E-2,1.4435165E-1,8.928687E-2,4.3411262E-2,1.9342499E-2,1.582165E-2,-3.0507394E-3,8.0924995E-2,4.130582E-2,9.726506E-2,5.5699248E-2,5.1053405E-2,2.7263356E-2,7.045158E-3,7.411569E-2,-9.728364E-3,6.805203E-2,4.536214E-2,-2.5247226E-2,2.1164548E-1,4.4432245E-2,3.8223293E-2,1.1508897E-2,3.773571E-2,8.443637E-2,1.3228063E-1,6.9880985E-2,4.9527936E-2,2.0284515E-2,1.3676646E-2,-1.8780854E-2,-7.107222E-3,2.1081692E-2,-2.6837109E-2,-4.470472E-2,-3.0673072E-2,-1.2902111E-2,-3.8721498E-2,-2.0794611E-2,6.0918457E-3,-2.1737326E-2,4.3498218E-2,1.3366292E-2],"categories":[],"categories_nodes":[],"categories_segments":[],"categories_sizes":[],"default_left":[0,0,0,0,0,0,0,0,0,0,0,0,0,0,0,0,0,0,0,0,0,0,0,0,0,0,0,0,0,0,0,0,0,0,0,0,0,0,0,0,0,0,0,0,0,0,0,0,0,0,0,0,0,0,0,0,0,0,0,0,0,0,0,0,0,0,0,0,0,0,0,0,0,0,0,0,0,0,0,0,0,0,0,0,0,0,0,0,0,0,0,0,0,0,0,0,0,0,0,0,0,0,0,0,0,0,0,0,0,0,0,0,0,0,0,0,0,0,0,0,0,0,0,0,0,0,0],"id":9,"left_children":[1,3,5,7,9,11,13,15,17,19,21,23,25,27,29,31,33,35,37,39,41,43,45,47,49,51,53,55,57,59,61,63,65,67,69,71,73,75,77,79,81,83,85,87,89,91,93,95,97,99,101,103,105,107,109,111,113,115,117,119,121,123,125,-1,-1,-1,-1,-1,-1,-1,-1,-1,-1,-1,-1,-1,-1,-1,-1,-1,-1,-1,-1,-1,-1,-1,-1,-1,-1,-1,-1,-1,-1,-1,-1,-1,-1,-1,-1,-1,-1,-1,-1,-1,-1,-1,-1,-1,-1,-1,-1,-1,-1,-1,-1,-1,-1,-1,-1,-1,-1,-1,-1,-1,-1,-1,-1],"loss_changes":[1.4063271E4,2.2486348E3,1.3436721E3,4.9542773E2,4.189348E2,3.7140018E2,3.384536E2,8.471484E1,1.3792676E2,4.379492E1,2.6423395E2,5.200005E2,8.434848E1,5.6414978E1,3.356836E2,2.7757324E1,4.763501E1,4.756201E1,6.362024E1,2.2292053E1,2.1001709E1,1.6897629E2,2.908728E1,1.1812715E2,9.575177E1,7.594549E1,2.4690323E1,1.9094772E1,1.8162434E1,2.0302783E2,9.482402E1,1.0340576E1,1.6433105E1,4.5510254E0,2.1565918E1,2.6247803E1,5.7584534E0,7.180737E1,1.2149506E1,1.1635986E1,6.7578354E0,1.938678E1,2.7142487E0,7.788574E1,4.7409527E1,2.6932251E1,1.5233231E1,2.4752563E1,3.5526367E1,2.694513E1,3.2791626E1,1.7580757E1,3.310356E1,1.7085983E1,8.274551E0,9.371384E0,1.1039312E1,1.2573109E1,1.247221E0,1.8653882E2,5.1708008E1,5.94303E1,2.0030945E1,0E0,0E0,0E0,0E0,0E0,0E0,0E0,0E0,0E0,0E0,0E0,0E0,0E0,0E0,0E0,0E0,0E0,0E0,0E0,0E0,0E0,0E0,0E0,0E0,0E0,0E0,0E0,0E0,0E0,0E0,0E0,0E0,0E0,0E0,0E0,0E0,0E0,0E0,0E0,0E0,0E0,0E0,0E0,0E0,0E0,0E0,0E0,0E0,0E0,0E0,0E0,0E0,0E0,0E0,0E0,0E0,0E0,0E0,0E0,0E0,0E0,0E0,0E0,0E0],"parents":[2147483647,0,0,1,1,2,2,3,3,4,4,5,5,6,6,7,7,8,8,9,9,10,10,11,11,12,12,13,13,14,14,15,15,16,16,17,17,18,18,19,19,20,20,21,21,22,22,23,23,24,24,25,25,26,26,27,27,28,28,29,29,30,30,31,31,32,32,33,33,34,34,35,35,36,36,37,37,38,38,39,39,40,40,41,41,42,42,43,43,44,44,45,45,46,46,47,47,48,48,49,49,50,50,51,51,52,52,53,53,54,54,55,55,56,56,57,57,58,58,59,59,60,60,61,61,62,62],"right_children":[2,4,6,8,10,12,14,16,18,20,22,24,26,28,30,32,34,36,38,40,42,44,46,48,50,52,54,56,58,60,62,64,66,68,70,72,74,76,78,80,82,84,86,88,90,92,94,96,98,100,102,104,106,108,110,112,114,116,118,120,122,124,126,-1,-1,-1,-1,-1,-1,-1,-1,-1,-1,-1,-1,-1,-1,-1,-1,-1,-1,-1,-1,-1,-1,-1,-1,-1,-1,-1,-1,-1,-1,-1,-1,-1,-1,-1,-1,-1,-1,-1,-1,-1,-1,-1,-1,-1,-1,-1,-1,-1,-1,-1,-1,-1,-1,-1,-1,-1,-1,-1,-1,-1,-1,-1,-1],"split_conditions":[-7.384051E-1,-9.546133E-1,-2.4310692E-1,-9E-2,-1.208E1,1E-2,-1.771E1,-9.9622166E-1,-9.970952E-1,-9.54E0,1E-2,-7.19E0,2.298E1,-3.04E1,2.412E1,-3.99E0,-9.54E0,2.6E0,2E-2,-8.471612E-1,5.3E-1,-7.7E-1,2.542E1,-1.999E1,-4.9343252E-1,2E-2,6.126E1,6.771127E-2,8.4636647E-1,4.1244003E-1,4.794E1,-9.9949837E-1,-9.9949837E-1,-1.686E1,-1.837E1,-6.7E0,-9.987841E-1,-3.36E0,8.52E0,-1.318E1,-1.444E1,-8.759971E-1,5.71E0,-9.045962E-1,-8.8785416E-1,1.38E0,-8.70534E-1,-5.036996E-1,1.3E-1,1.3E-1,-6.82E0,-3.3794412E-1,-1.26E0,1.73E1,4.59E0,-4E-1,9.759081E-1,2.38E0,9.9861115E-1,1.86E0,9.6E0,5.35813E-1,5.6125766E-1,1.3013026E-1,1.07472554E-1,1.1960616E-1,9.226421E-2,1.1613586E-1,9.830164E-2,9.469905E-2,7.23507E-2,9.033912E-2,6.73842E-2,1.0385036E-1,1.3457291E-1,6.0325693E-2,3.6485855E-2,9.293892E-2,6.740876E-2,8.1552394E-2,1.14267014E-1,5.1150687E-2,9.475023E-2,6.1619427E-2,4.4317536E-2,1.4435165E-1,8.928687E-2,4.3411262E-2,1.9342499E-2,1.582165E-2,-3.0507394E-3,8.0924995E-2,4.130582E-2,9.726506E-2,5.5699248E-2,5.1053405E-2,2.7263356E-2,7.045158E-3,7.411569E-2,-9.728364E-3,6.805203E-2,4.536214E-2,-2.5247226E-2,2.1164548E-1,4.4432245E-2,3.8223293E-2,1.1508897E-2,3.773571E-2,8.443637E-2,1.3228063E-1,6.9880985E-2,4.9527936E-2,2.0284515E-2,1.3676646E-2,-1.8780854E-2,-7.107222E-3,2.1081692E-2,-2.6837109E-2,-4.470472E-2,-3.0673072E-2,-1.2902111E-2,-3.8721498E-2,-2.0794611E-2,6.0918457E-3,-2.1737326E-2,4.3498218E-2,1.3366292E-2],"split_indices":[0,0,0,1,2,2,2,0,0,1,2,2,2,2,2,1,1,2,2,0,1,2,2,2,0,2,2,0,0,0,2,0,0,1,2,2,0,2,2,1,2,0,1,0,0,2,0,0,1,1,1,0,1,1,1,1,0,1,0,2,1,0,0,0,0,0,0,0,0,0,0,0,0,0,0,0,0,0,0,0,0,0,0,0,0,0,0,0,0,0,0,0,0,0,0,0,0,0,0,0,0,0,0,0,0,0,0,0,0,0,0,0,0,0,0,0,0,0,0,0,0,0,0,0,0,0,0],"split_type":[0,0,0,0,0,0,0,0,0,0,0,0,0,0,0,0,0,0,0,0,0,0,0,0,0,0,0,0,0,0,0,0,0,0,0,0,0,0,0,0,0,0,0,0,0,0,0,0,0,0,0,0,0,0,0,0,0,0,0,0,0,0,0,0,0,0,0,0,0,0,0,0,0,0,0,0,0,0,0,0,0,0,0,0,0,0,0,0,0,0,0,0,0,0,0,0,0,0,0,0,0,0,0,0,0,0,0,0,0,0,0,0,0,0,0,0,0,0,0,0,0,0,0,0,0,0,0],"sum_hessian":[1.3180816E5,3.6913234E4,9.489492E4,1.7616586E4,1.9296646E4,2.7622549E4,6.7272375E4,9.075766E3,8.540821E3,3.5115752E3,1.578507E4,2.1855355E4,5.767193E3,3.4535188E3,6.381885E4,5.372265E3,3.7035002E3,2.6678303E3,5.8729907E3,8.204867E2,2.6910886E3,1.2612897E4,3.172173E3,5.662668E3,1.6192688E4,4.877522E3,8.896711E2,1.4277234E3,2.0257954E3,5.976975E4,4.0491038E3,2.7119775E3,2.6602878E3,7.985507E2,2.9049495E3,2.354656E3,3.1317432E2,5.074567E3,7.98424E2,5.252942E2,2.951925E2,2.639271E3,5.18176E1,6.5606963E3,6.0522017E3,2.8019456E3,3.7022763E2,1.7610306E3,3.9016372E3,8.0169385E3,8.17575E3,3.2323982E1,4.8451978E3,7.944507E2,9.522039E1,4.4207043E2,9.8565295E2,1.6858909E3,3.3990454E2,3.0525855E4,2.9243893E4,3.1537217E3,8.953822E2,2.4635281E2,2.4656248E3,2.5559805E2,2.4046897E3,2.6396866E2,5.345821E2,5.451325E2,2.359817E3,7.418686E2,1.6127875E3,1.8974638E2,1.2342793E2,2.4464038E3,2.628163E3,3.4065454E2,4.5776947E2,3.519194E2,1.7337476E2,2.5245663E2,4.2735878E1,1.2228214E3,1.4164495E3,2.3455893E1,2.8361706E1,1.8889136E3,4.671782E3,1.9751936E3,4.077008E3,1.8401534E2,2.6179302E3,1.596643E2,2.1056332E2,9.1393695E2,8.470937E2,3.8219805E3,7.96569E1,7.973135E3,4.3803562E1,6.5433365E1,8.1103164E3,2.2938202E1,9.385779E0,5.189125E2,4.326285E3,7.0627716E2,8.817352E1,3.9557926E1,5.5662464E1,2.1787486E2,2.2419556E2,8.6736755E2,1.1828543E2,1.510129E3,1.7576181E2,2.9218207E2,4.7722473E1,2.2515674E4,8.010181E3,2.7531084E4,1.712808E3,1.3168473E3,1.8368743E3,3.9634756E2,4.9903464E2],"tree_param":{"num_deleted":"0","num_feature":"3","num_nodes":"127","size_leaf_vector":"1"}},{"base_weights":[2.5420173E-3,5.2086603E-2,-4.496918E-1,-3.1774482E-1,1.2920283E-1,-3.318107E-1,-6.3874197E-1,-5.219086E-1,-1.7921716E-1,1.762277E-1,-2.0425817E-1,-2.3026967E-1,-4.848215E-1,-5.479455E-1,-7.139958E-1,-7.478042E-1,-4.7828662E-1,-4.281303E-1,-1.0511164E-1,-1.0185167E-1,2.1114992E-1,-1.5124615E-1,-5.650224E-1,-6.086354E-1,-2.0259826E-1,-4.499057E-1,-8.407564E-1,-8.3683676E-1,-5.2156E-1,-6.821023E-1,-8.79427E-1,-8.449907E-1,-6.626135E-1,-5.6342065E-1,-3.6621818E-1,-7.9748774E-1,-3.8092282E-1,-3.1331453E-2,-3.4738478E-1,-2.2759506E-1,-1.3629859E-2,2.5155884E-1,8.3482616E-2,-6.8136716E-1,-1.3073727E-1,-4.7926557E-1,-8.8492733E-1,-1.0446781E-1,-5.6142485E-1,-1.7411079E-1,-4.3140128E-1,-6.715835E-1,-4.2444193E-1,-7.560464E-1,-9.7772574E-1,-7.812229E-1,-1.01451434E-1,-4.9007362E-1,-7.308757E-1,-5.181404E-1,-6.987179E-1,-8.420447E-1,-9.652301E-2,-1.06783345E-1,-8.2257554E-2,-9.2305094E-2,-6.0698003E-2,-6.190576E-2,-4.616455E-2,-4.903635E-2,-2.7732864E-2,-8.3513916E-2,-5.262647E-2,-4.7389634E-2,-3.0500326E-2,-1.261087E-2,4.4942265E-3,-2.7462607E-2,-6.962046E-2,-3.0443002E-2,-1.5604754E-2,-3.7154924E-2,2.0646516E-3,1.0541386E-2,3.226567E-2,9.845685E-3,-1.3835828E-2,-8.390081E-2,-5.4421734E-2,-3.335012E-2,-9.651452E-3,-8.437144E-2,-4.5797702E-2,-7.015478E-2,-9.4771E-2,-2.5707392E-2,-6.0978692E-2,-3.5633978E-2,-1.3684652E-2,-1.51392445E-2,-4.9289152E-2,-1.0578207E-1,-5.8834422E-2,-3.853351E-2,-5.6607664E-2,-5.8810692E-2,-8.672091E-2,-9.944313E-2,-5.6747884E-2,-8.076775E-2,-4.4309076E-2,-4.5654744E-2,-7.6461E-2,-7.0296556E-2,-1.0264557E-1,-8.5678324E-2,-4.7967605E-2,-1.0090387E-1,-6.9210745E-2,-1.0222536E-1,-8.146002E-2],"categories":[],"categories_nodes":[],"categories_segments":[],"categories_sizes":[],"default_left":[0,0,0,0,0,0,0,0,0,0,0,0,0,0,0,0,0,0,0,0,0,0,0,0,0,0,0,0,0,0,0,0,0,0,0,0,0,0,0,0,0,0,0,0,0,0,0,0,0,0,0,0,0,0,0,0,0,0,0,0,0,0,0,0,0,0,0,0,0,0,0,0,0,0,0,0,0,0,0,0,0,0,0,0,0,0,0,0,0,0,0,0,0,0,0,0,0,0,0,0,0,0,0,0,0,0,0,0,0,0,0,0,0,0,0,0,0,0,0,0,0],"id":10,"left_children":[1,3,5,7,9,11,13,15,17,19,21,23,25,27,29,31,33,35,37,39,41,43,45,47,49,51,53,55,57,59,61,63,65,67,69,71,73,75,77,79,81,83,85,87,89,91,93,-1,95,97,99,101,103,105,107,109,-1,111,113,115,117,119,-1,-1,-1,-1,-1,-1,-1,-1,-1,-1,-1,-1,-1,-1,-1,-1,-1,-1,-1,-1,-1,-1,-1,-1,-1,-1,-1,-1,-1,-1,-1,-1,-1,-1,-1,-1,-1,-1,-1,-1,-1,-1,-1,-1,-1,-1,-1,-1,-1,-1,-1,-1,-1,-1,-1,-1,-1,-1,-1],"loss_changes":[4.8256167E3,5.5360156E3,4.7370166E2,9.471304E2,2.5186775E3,2.0342676E2,5.5407227E1,1.3304565E2,3.680368E2,1.3670337E3,3.7957098E2,8.234305E1,6.455481E1,2.7806763E1,2.2942383E1,1.756665E1,1.0807861E2,7.9513245E1,2.7487262E2,1.7423242E2,6.4516016E2,1.881033E2,6.933948E1,1.0453354E1,4.7775146E1,2.6585266E1,4.6629944E0,2.2552032E0,2.203534E1,9.841309E0,1.4893188E0,4.211792E0,1.6411072E1,3.6225952E1,5.3965088E1,4.848755E0,2.851831E1,8.5230865E1,9.091696E1,3.555313E1,1.13260155E2,9.8701025E2,9.989946E1,1.3477234E1,1.15615845E2,1.5189453E1,5.510742E0,0E0,6.997513E0,4.429454E1,1.3908844E1,1.5090851E1,2.3446838E1,4.9429016E0,6.316681E-1,1.7823334E0,0E0,2.6863586E1,2.9268494E0,4.1282806E0,6.2717285E0,1.6785583E0,0E0,0E0,0E0,0E0,0E0,0E0,0E0,0E0,0E0,0E0,0E0,0E0,0E0,0E0,0E0,0E0,0E0,0E0,0E0,0E0,0E0,0E0,0E0,0E0,0E0,0E0,0E0,0E0,0E0,0E0,0E0,0E0,0E0,0E0,0E0,0E0,0E0,0E0,0E0,0E0,0E0,0E0,0E0,0E0,0E0,0E0,0E0,0E0,0E0,0E0,0E0,0E0,0E0,0E0,0E0,0E0,0E0,0E0,0E0],"parents":[2147483647,0,0,1,1,2,2,3,3,4,4,5,5,6,6,7,7,8,8,9,9,10,10,11,11,12,12,13,13,14,14,15,15,16,16,17,17,18,18,19,19,20,20,21,21,22,22,23,23,24,24,25,25,26,26,27,27,28,28,29,29,30,30,31,31,32,32,33,33,34,34,35,35,36,36,37,37,38,38,39,39,40,40,41,41,42,42,43,43,44,44,45,45,46,46,48,48,49,49,50,50,51,51,52,52,53,53,54,54,55,55,57,57,58,58,59,59,60,60,61,61],"right_children":[2,4,6,8,10,12,14,16,18,20,22,24,26,28,30,32,34,36,38,40,42,44,46,48,50,52,54,56,58,60,62,64,66,68,70,72,74,76,78,80,82,84,86,88,90,92,94,-1,96,98,100,102,104,106,108,110,-1,112,114,116,118,120,-1,-1,-1,-1,-1,-1,-1,-1,-1,-1,-1,-1,-1,-1,-1,-1,-1,-1,-1,-1,-1,-1,-1,-1,-1,-1,-1,-1,-1,-1,-1,-1,-1,-1,-1,-1,-1,-1,-1,-1,-1,-1,-1,-1,-1,-1,-1,-1,-1,-1,-1,-1,-1,-1,-1,-1,-1,-1,-1],"split_conditions":[9.145088E-1,0E0,9.9427485E-1,-9.44509E-1,1E-2,1.3E-1,1.31E0,-1.025E1,-1.999E1,-8.987592E-1,3.06E1,0E0,3.342E1,-1E-2,1.339E1,-1.837E1,-9.9622166E-1,-5.641E1,1E-2,-9.831501E-1,2.3E-1,-9.1646844E-1,6.126E1,-4.024E1,1.536E1,-4.71E0,1.73E1,-5.8E-1,1.482E1,9.960557E-1,3.06E1,-5.641E1,-9.990836E-1,-1.53E0,-8.22E0,-3.66E0,-3.04E1,-9.22E0,2.542E1,-3.36E0,-1.498E1,-1E-2,2.689E1,-9.935084E-1,-3.57E0,-9.045962E-1,9.6E0,-1.0446781E-1,9.32569E-1,0E0,9.408293E-1,1.71E0,1.769E1,4.148E1,9.925283E-1,-4.13E0,-1.01451434E-1,9.994459E-1,9.5E-1,-8.22E0,-2.103E1,1.38E0,-9.652301E-2,-1.06783345E-1,-8.2257554E-2,-9.2305094E-2,-6.0698003E-2,-6.190576E-2,-4.616455E-2,-4.903635E-2,-2.7732864E-2,-8.3513916E-2,-5.262647E-2,-4.7389634E-2,-3.0500326E-2,-1.261087E-2,4.4942265E-3,-2.7462607E-2,-6.962046E-2,-3.0443002E-2,-1.5604754E-2,-3.7154924E-2,2.0646516E-3,1.0541386E-2,3.226567E-2,9.845685E-3,-1.3835828E-2,-8.390081E-2,-5.4421734E-2,-3.335012E-2,-9.651452E-3,-8.437144E-2,-4.5797702E-2,-7.015478E-2,-9.4771E-2,-2.5707392E-2,-6.0978692E-2,-3.5633978E-2,-1.3684652E-2,-1.51392445E-2,-4.9289152E-2,-1.0578207E-1,-5.8834422E-2,-3.853351E-2,-5.6607664E-2,-5.8810692E-2,-8.672091E-2,-9.944313E-2,-5.6747884E-2,-8.076775E-2,-4.4309076E-2,-4.5654744E-2,-7.6461E-2,-7.0296556E-2,-1.0264557E-1,-8.5678324E-2,-4.7967605E-2,-1.0090387E-1,-6.9210745E-2,-1.0222536E-1,-8.146002E-2],"split_indices":[0,1,0,0,1,1,1,1,2,0,2,1,2,1,1,2,0,2,2,0,2,0,2,2,2,2,1,2,2,0,2,2,0,1,2,1,2,2,2,2,2,2,2,0,2,0,1,0,0,2,0,1,2,2,0,2,0,0,1,2,2,2,0,0,0,0,0,0,0,0,0,0,0,0,0,0,0,0,0,0,0,0,0,0,0,0,0,0,0,0,0,0,0,0,0,0,0,0,0,0,0,0,0,0,0,0,0,0,0,0,0,0,0,0,0,0,0,0,0,0,0],"split_type":[0,0,0,0,0,0,0,0,0,0,0,0,0,0,0,0,0,0,0,0,0,0,0,0,0,0,0,0,0,0,0,0,0,0,0,0,0,0,0,0,0,0,0,0,0,0,0,0,0,0,0,0,0,0,0,0,0,0,0,0,0,0,0,0,0,0,0,0,0,0,0,0,0,0,0,0,0,0,0,0,0,0,0,0,0,0,0,0,0,0,0,0,0,0,0,0,0,0,0,0,0,0,0,0,0,0,0,0,0,0,0,0,0,0,0,0,0,0,0,0,0],"sum_hessian":[2.1537211E5,1.941075E5,2.126461E4,3.3490715E4,1.6061678E5,1.3099348E4,8.1652617E3,1.353698E4,1.9953734E4,1.407663E5,1.9850482E4,7.875507E3,5.2238403E3,3.7042395E3,4.461022E3,2.1883748E3,1.1348606E4,4.576602E3,1.5377132E4,1.5705362E4,1.2506094E5,1.7308523E4,2.5419585E3,5.3528467E2,7.340222E3,4.7592417E3,4.645988E2,3.0743713E2,3.3968025E3,3.7442847E3,7.1673737E2,1.0180517E3,1.170323E3,6.447024E3,4.901582E3,5.1684515E2,4.0597568E3,1.1788326E4,3.5888064E3,6.4749604E3,9.230401E3,9.499302E4,3.0067914E4,6.4347656E2,1.6665047E4,2.0065587E3,5.353998E2,5.022968E1,4.85055E2,6.5290713E3,8.11151E2,4.8774496E2,4.2714966E3,2.9109073E2,1.7350804E2,2.3825812E2,6.917902E1,2.9555537E3,4.412488E2,3.4748657E2,3.396798E3,5.067656E2,2.0997177E2,8.878142E1,9.292703E2,2.0325095E2,9.670721E2,4.165052E3,2.2819722E3,2.0433181E3,2.8582637E3,4.520167E2,6.482842E1,1.8225552E3,2.2372017E3,5.256267E3,6.532059E3,2.9709062E3,6.1790015E2,3.1205469E3,3.3544136E3,8.0584106E2,8.424561E3,3.108953E4,6.3903496E4,2.8167188E4,1.9007257E3,2.9699316E2,3.464834E2,2.405302E3,1.4259745E4,1.0860831E2,1.8979503E3,1.3965645E2,3.9574332E2,6.73741E1,4.1768088E2,1.1070138E3,5.4220576E3,1.4667902E2,6.64472E2,8.440242E1,4.0334253E2,3.3501934E3,9.2130316E2,1.1844303E2,1.726477E2,1.6535086E2,8.157178E0,2.1968208E2,1.8576044E1,2.6362764E3,3.1927722E2,4.062655E2,3.498332E1,3.3273087E1,3.142135E2,6.768639E1,3.3291118E3,6.2186115E1,4.445795E2],"tree_param":{"num_deleted":"0","num_feature":"3","num_nodes":"121","size_leaf_vector":"1"}},{"base_weights":[-2.511958E-3,-2.3802981E-1,5.794108E-1,-3.2794133E-1,-3.175208E-2,3.662396E-1,9.458428E-1,-3.4396103E-1,9.0595364E-4,-5.9079014E-2,3.1845567E-1,2.8902894E-1,5.496506E-1,8.122578E-1,1.0876716E0,-1.01979464E-1,-3.6376914E-1,-7.290336E-2,4.454573E-1,2.709914E-1,-8.665048E-2,1.8465921E-1,4.79762E-1,6.1007214E-1,2.5159237E-1,4.5702115E-1,7.139057E-1,7.1437424E-1,9.2370653E-1,9.9935985E-1,1.1375337E0,1.2127152E-1,-1.6938576E-1,-4.2030746E-1,-3.127403E-1,-1.199643E-1,1.6155796E-1,3.3728567E-1,6.4539427E-1,5.757125E-1,2.2755033E-1,-1.6592264E-1,-1.30805895E-2,8.852586E-3,3.4916478E-1,3.4835467E-1,6.5459687E-1,5.050186E-1,8.6797905E-1,1.9028135E-1,4.2207345E-1,3.7253484E-1,6.1818314E-1,5.8102334E-1,8.2202536E-1,6.54383E-1,9.0204865E-1,1.3565663E0,9.102006E-1,9.437349E-1,1.1783406E0,1.1069199E0,1.2563556E0,2.3417767E-2,-5.323065E-3,-2.5219172E-2,-4.3249237E-3,-2.9826364E-2,-4.311702E-2,-2.0375727E-2,-3.5834387E-2,1.0944047E-2,-1.7257303E-2,2.3056876E-2,-2.3550289E-2,6.1495047E-2,1.7404234E-2,1.15777455E-1,6.201002E-2,3.1259652E-2,6.670184E-2,3.6556527E-2,1.4960425E-2,-2.016215E-2,-7.2408887E-3,-4.122767E-3,1.7684773E-2,1.2302063E-1,2.7534607E-4,7.4487455E-2,3.0668749E-2,2.7492393E-3,4.3325495E-2,1.657307E-1,6.1882507E-2,7.030121E-2,4.215671E-2,9.1589205E-2,5.933103E-2,1.44837545E-2,3.9120667E-2,3.2668136E-2,5.9058737E-2,3.512053E-2,1.03939965E-1,1.1926114E-1,5.913322E-2,4.7492933E-2,7.5139254E-2,7.2832674E-2,8.996298E-2,8.8401005E-2,5.713122E-2,1.0987814E-1,8.6697765E-2,1.7977118E-1,1.1735809E-1,8.848565E-2,1.1589887E-1,8.558797E-2,1.0217124E-1,1.20198645E-1,1.00844756E-1,1.0314883E-1,1.1599926E-1,1.2709118E-1,8.117502E-2],"categories":[],"categories_nodes":[],"categories_segments":[],"categories_sizes":[],"default_left":[0,0,0,0,0,0,0,0,0,0,0,0,0,0,0,0,0,0,0,0,0,0,0,0,0,0,0,0,0,0,0,0,0,0,0,0,0,0,0,0,0,0,0,0,0,0,0,0,0,0,0,0,0,0,0,0,0,0,0,0,0,0,0,0,0,0,0,0,0,0,0,0,0,0,0,0,0,0,0,0,0,0,0,0,0,0,0,0,0,0,0,0,0,0,0,0,0,0,0,0,0,0,0,0,0,0,0,0,0,0,0,0,0,0,0,0,0,0,0,0,0,0,0,0,0,0,0],"id":11,"left_children":[1,3,5,7,9,11,13,15,17,19,21,23,25,27,29,31,33,35,37,39,41,43,45,47,49,51,53,55,57,59,61,63,65,67,69,71,73,75,77,79,81,83,85,87,89,91,93,95,97,99,101,103,105,107,109,111,113,115,117,119,121,123,125,-1,-1,-1,-1,-1,-1,-1,-1,-1,-1,-1,-1,-1,-1,-1,-1,-1,-1,-1,-1,-1,-1,-1,-1,-1,-1,-1,-1,-1,-1,-1,-1,-1,-1,-1,-1,-1,-1,-1,-1,-1,-1,-1,-1,-1,-1,-1,-1,-1,-1,-1,-1,-1,-1,-1,-1,-1,-1,-1,-1,-1,-1,-1,-1],"loss_changes":[1.6789004E4,1.6173711E3,2.756581E3,3.199458E2,2.533716E2,3.1585083E2,2.4504102E2,2.775464E2,9.26336E1,2.2351411E2,4.127086E1,1.886156E2,1.0024182E2,7.2302734E1,2.6573242E1,6.5982254E1,1.5430762E2,2.6734623E1,8.476341E0,2.4933746E1,1.3218414E2,3.0339031E1,1.9719284E1,4.398285E1,1.4696014E2,5.735431E1,3.3740112E1,3.9550415E1,1.7028809E1,2.157837E1,1.3213867E1,2.0051863E1,3.5158607E1,3.3532715E1,1.3978198E2,2.4361626E1,1.1156427E1,1.1811792E1,1.0969658E0,5.4515533E0,1.7791039E1,3.640619E1,6.2857487E1,3.7820842E0,8.881187E0,1.3549236E1,1.2296722E1,1.8992035E1,5.683258E0,9.443329E1,5.9608887E1,3.9137207E1,2.170636E1,1.9017578E1,8.875977E0,5.1099487E1,4.987732E0,5.3560333E0,1.8095703E1,1.1071411E1,9.4262695E-1,1.1616943E1,4.243164E0,0E0,0E0,0E0,0E0,0E0,0E0,0E0,0E0,0E0,0E0,0E0,0E0,0E0,0E0,0E0,0E0,0E0,0E0,0E0,0E0,0E0,0E0,0E0,0E0,0E0,0E0,0E0,0E0,0E0,0E0,0E0,0E0,0E0,0E0,0E0,0E0,0E0,0E0,0E0,0E0,0E0,0E0,0E0,0E0,0E0,0E0,0E0,0E0,0E0,0E0,0E0,0E0,0E0,0E0,0E0,0E0,0E0,0E0,0E0,0E0,0E0,0E0,0E0,0E0],"parents":[2147483647,0,0,1,1,2,2,3,3,4,4,5,5,6,6,7,7,8,8,9,9,10,10,11,11,12,12,13,13,14,14,15,15,16,16,17,17,18,18,19,19,20,20,21,21,22,22,23,23,24,24,25,25,26,26,27,27,28,28,29,29,30,30,31,31,32,32,33,33,34,34,35,35,36,36,37,37,38,38,39,39,40,40,41,41,42,42,43,43,44,44,45,45,46,46,47,47,48,48,49,49,50,50,51,51,52,52,53,53,54,54,55,55,56,56,57,57,58,58,59,59,60,60,61,61,62,62],"right_children":[2,4,6,8,10,12,14,16,18,20,22,24,26,28,30,32,34,36,38,40,42,44,46,48,50,52,54,56,58,60,62,64,66,68,70,72,74,76,78,80,82,84,86,88,90,92,94,96,98,100,102,104,106,108,110,112,114,116,118,120,122,124,126,-1,-1,-1,-1,-1,-1,-1,-1,-1,-1,-1,-1,-1,-1,-1,-1,-1,-1,-1,-1,-1,-1,-1,-1,-1,-1,-1,-1,-1,-1,-1,-1,-1,-1,-1,-1,-1,-1,-1,-1,-1,-1,-1,-1,-1,-1,-1,-1,-1,-1,-1,-1,-1,-1,-1,-1,-1,-1,-1,-1,-1,-1,-1,-1],"split_conditions":[5.239891E-1,-4.3782476E-2,9.4897157E-1,1.71E1,1.936E1,1.3E-1,9.9427485E-1,-2.103E1,4.794E1,-1.444E1,3.06E1,-9.47E0,1.363E1,1E-2,9.980851E-1,-4.024E1,-6.8948424E-1,-1.8088022E-1,1.232E1,-1.686E1,2.146305E-1,2.4477054E-1,6.89E0,8.285957E-1,6.47E0,8.550399E-1,7.8218776E-1,9.26E0,-1.771E1,1.482E1,9.994459E-1,-3.66E0,-7.144744E-1,-7.33E0,-3.8E-1,-2.06E0,1.232E1,-7.223664E-1,-9.992161E-1,9.668776E-2,-2.688E1,1E-2,1E-2,-1.686E1,2.02E1,8.600787E-2,7.41E0,-2.424E1,-1.115E1,8.802525E-1,8.285957E-1,1.484E1,5.3E-1,2.861E1,7.91E0,-1E-2,1.074E1,1.71E0,3.342E1,1.3E-1,2.063E1,1.31E0,3.708E1,2.3417767E-2,-5.323065E-3,-2.5219172E-2,-4.3249237E-3,-2.9826364E-2,-4.311702E-2,-2.0375727E-2,-3.5834387E-2,1.0944047E-2,-1.7257303E-2,2.3056876E-2,-2.3550289E-2,6.1495047E-2,1.7404234E-2,1.15777455E-1,6.201002E-2,3.1259652E-2,6.670184E-2,3.6556527E-2,1.4960425E-2,-2.016215E-2,-7.2408887E-3,-4.122767E-3,1.7684773E-2,1.2302063E-1,2.7534607E-4,7.4487455E-2,3.0668749E-2,2.7492393E-3,4.3325495E-2,1.657307E-1,6.1882507E-2,7.030121E-2,4.215671E-2,9.1589205E-2,5.933103E-2,1.44837545E-2,3.9120667E-2,3.2668136E-2,5.9058737E-2,3.512053E-2,1.03939965E-1,1.1926114E-1,5.913322E-2,4.7492933E-2,7.5139254E-2,7.2832674E-2,8.996298E-2,8.8401005E-2,5.713122E-2,1.0987814E-1,8.6697765E-2,1.7977118E-1,1.1735809E-1,8.848565E-2,1.1589887E-1,8.558797E-2,1.0217124E-1,1.20198645E-1,1.00844756E-1,1.0314883E-1,1.1599926E-1,1.2709118E-1,8.117502E-2],"split_indices":[0,0,0,2,2,1,0,2,2,2,2,2,2,1,0,2,0,0,1,1,0,0,1,0,2,0,0,2,2,2,0,1,0,1,2,1,1,0,0,0,2,2,1,1,2,0,1,2,2,0,0,1,1,2,1,2,2,1,2,1,1,1,2,0,0,0,0,0,0,0,0,0,0,0,0,0,0,0,0,0,0,0,0,0,0,0,0,0,0,0,0,0,0,0,0,0,0,0,0,0,0,0,0,0,0,0,0,0,0,0,0,0,0,0,0,0,0,0,0,0,0,0,0,0,0,0,0],"split_type":[0,0,0,0,0,0,0,0,0,0,0,0,0,0,0,0,0,0,0,0,0,0,0,0,0,0,0,0,0,0,0,0,0,0,0,0,0,0,0,0,0,0,0,0,0,0,0,0,0,0,0,0,0,0,0,0,0,0,0,0,0,0,0,0,0,0,0,0,0,0,0,0,0,0,0,0,0,0,0,0,0,0,0,0,0,0,0,0,0,0,0,0,0,0,0,0,0,0,0,0,0,0,0,0,0,0,0,0,0,0,0,0,0,0,0,0,0,0,0,0,0,0,0,0,0,0,0],"sum_hessian":[1.2249791E5,8.7204695E4,3.5293207E4,6.073234E4,2.647236E4,2.231405E4,1.2979157E4,5.7911168E4,2.82117E3,2.4556992E4,1.9153665E3,1.5705197E4,6.6088525E3,6.687291E3,6.2918667E3,4.3822686E3,5.3528902E4,2.420181E3,4.0098907E2,1.8924766E3,2.2664516E4,1.048132E3,8.672344E2,1.6385206E3,1.4066677E4,4.2281987E3,2.3806538E3,3.5642656E3,3.1230256E3,2.278107E3,4.0137595E3,1.016106E3,3.3661624E3,2.5390172E4,2.8138729E4,2.0160157E3,4.0416522E2,2.619523E2,1.3903676E2,2.3460034E2,1.6578762E3,1.0908867E4,1.1755649E4,5.0717224E2,5.409598E2,4.9681595E2,3.7041846E2,1.1663771E3,4.7214362E2,1.0347477E4,3.7192007E3,2.776159E3,1.4520399E3,1.0708818E3,1.3097719E3,2.7043052E3,8.5996045E2,9.14863E1,3.0315393E3,1.7427535E3,5.3535345E2,3.1996943E3,8.140651E2,6.1672894E2,3.9937708E2,2.0315159E3,1.3346465E3,2.077521E3,2.3312652E4,8.302637E3,1.9836092E4,3.758798E2,1.6401359E3,3.4467807E2,5.948715E1,9.596163E1,1.6599068E2,4.434518E0,1.3460225E2,6.1577133E1,1.7302321E2,5.9703986E2,1.0608363E3,7.8941284E3,3.0147388E3,1.0239024E4,1.5166246E3,1.5228286E0,5.056494E2,5.0836987E1,4.9012277E2,1.0422893E2,3.92587E2,1.1198078E1,3.5922037E2,3.4364215E2,8.227349E2,4.000285E2,7.2115105E1,8.440245E3,1.9072316E3,2.3767256E3,1.3424751E3,2.691595E3,8.456377E1,6.2904057E1,1.3891359E3,6.6226E2,4.0862183E2,5.980629E2,7.11709E2,7.158599E2,1.9884452E3,1.25519905E2,7.344405E2,2.4235188E1,6.7251114E1,2.755402E3,2.761373E2,8.251056E2,9.1764795E2,4.646133E2,7.074015E1,1.3299232E3,1.8697712E3,7.864583E2,2.7606823E1],"tree_param":{"num_deleted":"0","num_feature":"3","num_nodes":"127","size_leaf_vector":"1"}},{"base_weights":[-2.011661E-3,4.5780143E-1,-1.9972031E-1,6.7696875E-1,2.5943485E-1,-2.149784E-2,-2.714795E-1,8.0687684E-1,5.357967E-1,4.8571792E-1,1.8380018E-1,-7.773662E-2,1.8446554E-1,-3.2648828E-4,-2.889056E-1,8.721729E-1,7.112248E-1,6.9128186E-1,4.636733E-1,6.2931955E-1,4.2379108E-1,1.1478591E-1,4.191337E-1,2.1911642E-1,-1.4316775E-1,1.1233993E-1,3.5928527E-1,1.4103042E-1,-1.0142931E-1,-3.0759475E-1,-2.6225673E-2,9.857079E-1,8.3642673E-1,8.8043934E-1,6.635009E-1,6.499789E-1,9.9370295E-1,4.273703E-1,6.896275E-1,7.784946E-1,5.2618945E-1,5.151322E-1,3.4937206E-1,3.8986164E-1,8.5091814E-2,6.0389113E-1,3.8098356E-1,3.3722305E-1,1.1554069E-1,-3.0197442E-2,-1.9788297E-1,1.3706298E0,1.01077095E-1,7.2451675E-1,3.1762666E-1,1.9351391E-1,-1.0142995E-1,-6.1290845E-2,-3.1817368E-1,-2.5036666E-1,-3.673115E-1,-1.01857185E-1,2.309091E-1,1.1118466E-1,9.461369E-2,8.028642E-2,9.467752E-2,8.677927E-2,1.4104742E-1,6.4602286E-2,1.0839788E-1,7.795142E-2,5.8912374E-2,8.881522E-2,1.1461885E-1,5.3044487E-2,3.292307E-2,8.157078E-2,5.930649E-2,7.159202E-2,8.629601E-2,4.5753423E-2,7.172923E-2,7.4278556E-2,4.559913E-2,3.354686E-2,8.935591E-2,1.7852305E-2,5.6413528E-2,1.9179177E-2,2.239484E-3,3.229938E-2,6.9962196E-2,7.3140495E-2,3.5916023E-2,4.2737287E-2,2.2651887E-2,8.447867E-2,1.0609022E-2,-4.4256295E-3,7.55248E-2,-1.2124308E-2,-2.6098324E-2,1.7099224E-1,4.1831035E-2,1.8012898E-2,4.732165E-3,6.428688E-2,1.2148061E-1,2.205556E-2,4.717193E-2,2.9151881E-2,9.641192E-3,7.5489017E-3,-2.3888467E-2,-8.489998E-3,1.3176002E-2,-2.8481876E-2,-5.1005203E-2,-3.0099927E-2,-1.3122621E-2,-3.778882E-2,-2.0152256E-2,3.8307023E-3,-2.251037E-2,3.774581E-2,1.112681E-2],"categories":[],"categories_nodes":[],"categories_segments":[],"categories_sizes":[],"default_left":[0,0,0,0,0,0,0,0,0,0,0,0,0,0,0,0,0,0,0,0,0,0,0,0,0,0,0,0,0,0,0,0,0,0,0,0,0,0,0,0,0,0,0,0,0,0,0,0,0,0,0,0,0,0,0,0,0,0,0,0,0,0,0,0,0,0,0,0,0,0,0,0,0,0,0,0,0,0,0,0,0,0,0,0,0,0,0,0,0,0,0,0,0,0,0,0,0,0,0,0,0,0,0,0,0,0,0,0,0,0,0,0,0,0,0,0,0,0,0,0,0,0,0,0,0,0,0],"id":12,"left_children":[1,3,5,7,9,11,13,15,17,19,21,23,25,27,29,31,33,35,37,39,41,43,45,47,49,51,53,55,57,59,61,63,65,67,69,71,73,75,77,79,81,83,85,87,89,91,93,95,97,99,101,103,105,107,109,111,113,115,117,119,121,123,125,-1,-1,-1,-1,-1,-1,-1,-1,-1,-1,-1,-1,-1,-1,-1,-1,-1,-1,-1,-1,-1,-1,-1,-1,-1,-1,-1,-1,-1,-1,-1,-1,-1,-1,-1,-1,-1,-1,-1,-1,-1,-1,-1,-1,-1,-1,-1,-1,-1,-1,-1,-1,-1,-1,-1,-1,-1,-1,-1,-1,-1,-1,-1,-1],"loss_changes":[1.1931542E4,1.7155566E3,1.173812E3,3.434043E2,3.5447595E2,3.0520685E2,3.0919287E2,6.034912E1,1.00468994E2,4.588025E1,2.5215723E2,4.0204645E2,7.12204E1,5.6500317E1,3.0183447E2,2.2702637E1,3.144165E1,3.4902588E1,5.009326E1,2.3612915E1,2.4486633E1,9.805519E1,2.4587036E1,4.569403E1,1.0482666E2,5.658277E1,2.4877869E1,2.0997337E1,2.0032433E1,1.9607227E2,7.946678E1,5.848877E0,1.5593018E1,4.6035767E0,2.2062866E1,1.9302002E1,4.4556885E0,5.3388977E1,9.848694E0,2.7445984E0,1.1825256E1,2.156726E1,1.4852875E1,4.2981705E1,7.25123E1,1.5932159E1,2.2075409E1,1.733023E1,1.3647633E1,6.1155087E1,5.522339E1,1.0731857E1,1.685315E1,5.951195E0,2.2079147E1,1.2871666E1,7.1676416E0,8.880472E0,2.1581383E0,1.7679407E2,4.9174805E1,5.454952E1,1.6242073E1,0E0,0E0,0E0,0E0,0E0,0E0,0E0,0E0,0E0,0E0,0E0,0E0,0E0,0E0,0E0,0E0,0E0,0E0,0E0,0E0,0E0,0E0,0E0,0E0,0E0,0E0,0E0,0E0,0E0,0E0,0E0,0E0,0E0,0E0,0E0,0E0,0E0,0E0,0E0,0E0,0E0,0E0,0E0,0E0,0E0,0E0,0E0,0E0,0E0,0E0,0E0,0E0,0E0,0E0,0E0,0E0,0E0,0E0,0E0,0E0,0E0,0E0,0E0,0E0],"parents":[2147483647,0,0,1,1,2,2,3,3,4,4,5,5,6,6,7,7,8,8,9,9,10,10,11,11,12,12,13,13,14,14,15,15,16,16,17,17,18,18,19,19,20,20,21,21,22,22,23,23,24,24,25,25,26,26,27,27,28,28,29,29,30,30,31,31,32,32,33,33,34,34,35,35,36,36,37,37,38,38,39,39,40,40,41,41,42,42,43,43,44,44,45,45,46,46,47,47,48,48,49,49,50,50,51,51,52,52,53,53,54,54,55,55,56,56,57,57,58,58,59,59,60,60,61,61,62,62],"right_children":[2,4,6,8,10,12,14,16,18,20,22,24,26,28,30,32,34,36,38,40,42,44,46,48,50,52,54,56,58,60,62,64,66,68,70,72,74,76,78,80,82,84,86,88,90,92,94,96,98,100,102,104,106,108,110,112,114,116,118,120,122,124,126,-1,-1,-1,-1,-1,-1,-1,-1,-1,-1,-1,-1,-1,-1,-1,-1,-1,-1,-1,-1,-1,-1,-1,-1,-1,-1,-1,-1,-1,-1,-1,-1,-1,-1,-1,-1,-1,-1,-1,-1,-1,-1,-1,-1,-1,-1,-1,-1,-1,-1,-1,-1,-1,-1,-1,-1,-1,-1,-1,-1,-1,-1,-1,-1],"split_conditions":[-7.223664E-1,-9.546133E-1,-2.4310692E-1,-9E-2,-9.22E0,1E-2,-1.616E1,-9.9622166E-1,-9.970952E-1,-9.045962E-1,1E-2,-1.115E1,1.536E1,-2.851E1,2.412E1,-1.67E1,-9.54E0,2.6E0,2E-2,-1.999E1,-2.69E0,-3.66E0,-9.2249006E-1,-1.999E1,-5.8E-1,2E-2,-3.66E0,8.4636647E-1,8.4636647E-1,4.1244003E-1,4.794E1,-9.992161E-1,-1.01E0,2.542E1,1.363E1,-6.7E0,-9.987841E-1,-3.36E0,8.52E0,-2.688E1,-1.115E1,-3.04E1,5.3E-1,-6.15E0,-8.8178736E-1,4.38E0,1.38E0,-1E-2,-2.019E1,1.3E-1,-4.9343252E-1,-3.3794412E-1,-5.2322435E-1,6.126E1,1.3E-1,0E0,-4.024E1,2.38E0,9.9861115E-1,1E-2,9.6E0,6.0854435E-1,5.6125766E-1,1.1118466E-1,9.461369E-2,8.028642E-2,9.467752E-2,8.677927E-2,1.4104742E-1,6.4602286E-2,1.0839788E-1,7.795142E-2,5.8912374E-2,8.881522E-2,1.1461885E-1,5.3044487E-2,3.292307E-2,8.157078E-2,5.930649E-2,7.159202E-2,8.629601E-2,4.5753423E-2,7.172923E-2,7.4278556E-2,4.559913E-2,3.354686E-2,8.935591E-2,1.7852305E-2,5.6413528E-2,1.9179177E-2,2.239484E-3,3.229938E-2,6.9962196E-2,7.3140495E-2,3.5916023E-2,4.2737287E-2,2.2651887E-2,8.447867E-2,1.0609022E-2,-4.4256295E-3,7.55248E-2,-1.2124308E-2,-2.6098324E-2,1.7099224E-1,4.1831035E-2,1.8012898E-2,4.732165E-3,6.428688E-2,1.2148061E-1,2.205556E-2,4.717193E-2,2.9151881E-2,9.641192E-3,7.5489017E-3,-2.3888467E-2,-8.489998E-3,1.3176002E-2,-2.8481876E-2,-5.1005203E-2,-3.0099927E-2,-1.3122621E-2,-3.778882E-2,-2.0152256E-2,3.8307023E-3,-2.251037E-2,3.774581E-2,1.112681E-2],"split_indices":[0,0,0,1,2,2,2,0,0,0,2,2,2,2,2,2,1,2,2,2,1,1,0,2,2,2,1,0,0,0,2,0,2,2,2,2,0,2,2,2,2,2,1,2,0,2,2,1,1,1,0,0,0,2,1,1,2,1,0,2,1,0,0,0,0,0,0,0,0,0,0,0,0,0,0,0,0,0,0,0,0,0,0,0,0,0,0,0,0,0,0,0,0,0,0,0,0,0,0,0,0,0,0,0,0,0,0,0,0,0,0,0,0,0,0,0,0,0,0,0,0,0,0,0,0,0,0],"split_type":[0,0,0,0,0,0,0,0,0,0,0,0,0,0,0,0,0,0,0,0,0,0,0,0,0,0,0,0,0,0,0,0,0,0,0,0,0,0,0,0,0,0,0,0,0,0,0,0,0,0,0,0,0,0,0,0,0,0,0,0,0,0,0,0,0,0,0,0,0,0,0,0,0,0,0,0,0,0,0,0,0,0,0,0,0,0,0,0,0,0,0,0,0,0,0,0,0,0,0,0,0,0,0,0,0,0,0,0,0,0,0,0,0,0,0,0,0,0,0,0,0,0,0,0,0,0,0],"sum_hessian":[1.3124505E5,3.9463367E4,9.178169E4,1.8747541E4,2.0715824E4,2.6347018E4,6.5434668E4,9.760816E3,8.986725E3,5.1882495E3,1.5527575E4,2.069643E4,5.6505864E3,3.9513972E3,6.148327E4,5.7960645E3,3.964752E3,2.844946E3,6.1417783E3,1.5604873E3,3.6277622E3,1.2007674E4,3.5199011E3,3.7375E3,1.695893E4,4.001376E3,1.6492103E3,1.647521E3,2.3038762E3,5.7399258E4,4.084014E3,1.3815353E3,4.4145293E3,8.6835986E2,3.096392E3,2.5058591E3,3.390869E2,5.294093E3,8.476858E2,6.3517474E2,9.253126E2,1.6260475E3,2.0017147E3,1.1687407E3,1.0838934E4,5.998853E2,2.9200159E3,1.7452026E3,1.9922972E3,5.534148E3,1.1424782E4,3.4427456E1,3.9669485E3,1.6717287E2,1.4820375E3,1.3545204E3,2.9300052E2,1.9449731E3,3.58903E2,2.9313021E4,2.8086234E4,3.156261E3,9.2775287E2,3.234353E2,1.0581E3,3.39133E3,1.02319934E3,8.5069934E2,1.7660519E1,2.9752559E3,1.2113616E2,7.9718146E2,1.7086777E3,2.0441496E2,1.3467197E2,2.5799766E3,2.714116E3,3.6442035E2,4.832654E2,3.7031256E2,